{"learner":{"attributes":{"scikit_learn":"{\"_estimator_type\": \"classifier\"}"},"feature_names":["loan_amnt","funded_amnt","installment","annual_inc","issue_d","purpose","zip_code","addr_state","dti","delinq_2yrs","inq_last_6mths","open_acc","pub_rec","revol_bal","total_acc","total_pymnt","total_rec_prncp","total_rec_int","total_rec_late_fee","recoveries","collection_recovery_fee","last_pymnt_d","last_pymnt_amnt","last_credit_pull_d","pub_rec_bankruptcies","int_rate_","emp_length_","revol_util_","term_","home_ownership_MORTGAGE","home_ownership_OWN","home_ownership_RENT","loan_status_","verification_status_"],"feature_types":["int","int","float","float","int","float","float","float","float","int","int","int","int","int","int","float","float","float","float","float","float","float","float","float","float","float","float","float","int","int","int","int","int","int"],"gradient_booster":{"model":{"gbtree_model_param":{"num_parallel_tree":"1","num_trees":"1036"},"iteration_indptr":[0,7,14,21,28,35,42,49,56,63,70,77,84,91,98,105,112,119,126,133,140,147,154,161,168,175,182,189,196,203,210,217,224,231,238,245,252,259,266,273,280,287,294,301,308,315,322,329,336,343,350,357,364,371,378,385,392,399,406,413,420,427,434,441,448,455,462,469,476,483,490,497,504,511,518,525,532,539,546,553,560,567,574,581,588,595,602,609,616,623,630,637,644,651,658,665,672,679,686,693,700,707,714,721,728,735,742,749,756,763,770,777,784,791,798,805,812,819,826,833,840,847,854,861,868,875,882,889,896,903,910,917,924,931,938,945,952,959,966,973,980,987,994,1001,1008,1015,1022,1029,1036],"tree_info":[0,1,2,3,4,5,6,0,1,2,3,4,5,6,0,1,2,3,4,5,6,0,1,2,3,4,5,6,0,1,2,3,4,5,6,0,1,2,3,4,5,6,0,1,2,3,4,5,6,0,1,2,3,4,5,6,0,1,2,3,4,5,6,0,1,2,3,4,5,6,0,1,2,3,4,5,6,0,1,2,3,4,5,6,0,1,2,3,4,5,6,0,1,2,3,4,5,6,0,1,2,3,4,5,6,0,1,2,3,4,5,6,0,1,2,3,4,5,6,0,1,2,3,4,5,6,0,1,2,3,4,5,6,0,1,2,3,4,5,6,0,1,2,3,4,5,6,0,1,2,3,4,5,6,0,1,2,3,4,5,6,0,1,2,3,4,5,6,0,1,2,3,4,5,6,0,1,2,3,4,5,6,0,1,2,3,4,5,6,0,1,2,3,4,5,6,0,1,2,3,4,5,6,0,1,2,3,4,5,6,0,1,2,3,4,5,6,0,1,2,3,4,5,6,0,1,2,3,4,5,6,0,1,2,3,4,5,6,0,1,2,3,4,5,6,0,1,2,3,4,5,6,0,1,2,3,4,5,6,0,1,2,3,4,5,6,0,1,2,3,4,5,6,0,1,2,3,4,5,6,0,1,2,3,4,5,6,0,1,2,3,4,5,6,0,1,2,3,4,5,6,0,1,2,3,4,5,6,0,1,2,3,4,5,6,0,1,2,3,4,5,6,0,1,2,3,4,5,6,0,1,2,3,4,5,6,0,1,2,3,4,5,6,0,1,2,3,4,5,6,0,1,2,3,4,5,6,0,1,2,3,4,5,6,0,1,2,3,4,5,6,0,1,2,3,4,5,6,0,1,2,3,4,5,6,0,1,2,3,4,5,6,0,1,2,3,4,5,6,0,1,2,3,4,5,6,0,1,2,3,4,5,6,0,1,2,3,4,5,6,0,1,2,3,4,5,6,0,1,2,3,4,5,6,0,1,2,3,4,5,6,0,1,2,3,4,5,6,0,1,2,3,4,5,6,0,1,2,3,4,5,6,0,1,2,3,4,5,6,0,1,2,3,4,5,6,0,1,2,3,4,5,6,0,1,2,3,4,5,6,0,1,2,3,4,5,6,0,1,2,3,4,5,6,0,1,2,3,4,5,6,0,1,2,3,4,5,6,0,1,2,3,4,5,6,0,1,2,3,4,5,6,0,1,2,3,4,5,6,0,1,2,3,4,5,6,0,1,2,3,4,5,6,0,1,2,3,4,5,6,0,1,2,3,4,5,6,0,1,2,3,4,5,6,0,1,2,3,4,5,6,0,1,2,3,4,5,6,0,1,2,3,4,5,6,0,1,2,3,4,5,6,0,1,2,3,4,5,6,0,1,2,3,4,5,6,0,1,2,3,4,5,6,0,1,2,3,4,5,6,0,1,2,3,4,5,6,0,1,2,3,4,5,6,0,1,2,3,4,5,6,0,1,2,3,4,5,6,0,1,2,3,4,5,6,0,1,2,3,4,5,6,0,1,2,3,4,5,6,0,1,2,3,4,5,6,0,1,2,3,4,5,6,0,1,2,3,4,5,6,0,1,2,3,4,5,6,0,1,2,3,4,5,6,0,1,2,3,4,5,6,0,1,2,3,4,5,6,0,1,2,3,4,5,6,0,1,2,3,4,5,6,0,1,2,3,4,5,6,0,1,2,3,4,5,6,0,1,2,3,4,5,6,0,1,2,3,4,5,6,0,1,2,3,4,5,6,0,1,2,3,4,5,6,0,1,2,3,4,5,6,0,1,2,3,4,5,6,0,1,2,3,4,5,6,0,1,2,3,4,5,6,0,1,2,3,4,5,6,0,1,2,3,4,5,6,0,1,2,3,4,5,6,0,1,2,3,4,5,6,0,1,2,3,4,5,6,0,1,2,3,4,5,6,0,1,2,3,4,5,6,0,1,2,3,4,5,6,0,1,2,3,4,5,6,0,1,2,3,4,5,6,0,1,2,3,4,5,6,0,1,2,3,4,5,6,0,1,2,3,4,5,6,0,1,2,3,4,5,6,0,1,2,3,4,5,6,0,1,2,3,4,5,6,0,1,2,3,4,5,6,0,1,2,3,4,5,6,0,1,2,3,4,5,6,0,1,2,3,4,5,6,0,1,2,3,4,5,6,0,1,2,3,4,5,6,0,1,2,3,4,5,6,0,1,2,3,4,5,6,0,1,2,3,4,5,6,0,1,2,3,4,5,6,0,1,2,3,4,5,6,0,1,2,3,4,5,6,0,1,2,3,4,5,6,0,1,2,3,4,5,6,0,1,2,3,4,5,6,0,1,2,3,4,5,6],"trees":[{"base_weights":[4.5347401E-1,3.3334913E0,-5.5667984E-1,4.011214E-1,2.27089E0,5.843289E-1,-6.704301E-2,6.740489E-2,2.6847713E0,2.0730672E0,-6.615743E-2,2.2266111E0,-6.505753E-2,3.395036E0,1.4708773E0,-6.3759334E-2,3.9187104E-1,-4.6126947E-2,3.4947655E-1,-4.8901927E-2,3.993591E-1,2.511292E0,-6.473615E-2,-6.2084123E-2,3.9289236E-1],"categories":[],"categories_nodes":[],"categories_segments":[],"categories_sizes":[],"default_left":[0,0,0,0,0,0,0,0,0,0,0,0,0,0,0,0,0,0,0,0,0,0,0,0,0],"id":0,"left_children":[1,3,5,-1,7,9,-1,11,13,15,-1,17,-1,19,21,-1,-1,-1,-1,-1,-1,23,-1,-1,-1],"loss_changes":[2.2642139E4,3.2707227E2,1.7489954E2,0E0,2.3836731E2,2.283097E2,0E0,5.9227966E1,1.8484558E2,2.0485622E2,0E0,2.220781E1,0E0,4.323694E1,1.7714888E2,0E0,0E0,0E0,0E0,0E0,0E0,1.543377E2,0E0,0E0,0E0],"parents":[2147483647,0,0,1,1,2,2,4,4,5,5,7,7,8,8,9,9,11,11,13,13,14,14,21,21],"right_children":[2,4,6,-1,8,10,-1,12,14,16,-1,18,-1,20,22,-1,-1,-1,-1,-1,-1,24,-1,-1,-1],"split_conditions":[9.62E0,8.63E0,9.88E0,4.011214E-1,8.9E0,3.2E1,-6.704301E-2,2.2E1,9.07E0,2E1,-6.615743E-2,1.2E1,-6.505753E-2,1.3E1,3.2E1,-6.3759334E-2,3.9187104E-1,-4.6126947E-2,3.4947655E-1,-4.8901927E-2,3.993591E-1,1.9E1,-6.473615E-2,-6.2084123E-2,3.9289236E-1],"split_indices":[25,25,25,0,25,4,0,4,25,4,0,4,0,4,4,0,0,0,0,0,0,4,0,0,0],"split_type":[0,0,0,0,0,0,0,0,0,0,0,0,0,0,0,0,0,0,0,0,0,0,0,0,0],"sum_hessian":[7.7811436E3,2.0199185E3,5.761225E3,1.759347E3,2.6057144E2,1.3053062E2,5.6306943E3,4.1387756E1,2.1918369E2,5.681633E1,7.3714294E1,8.816327E0,3.257143E1,1.3714287E2,8.2040825E1,1.9346941E1,3.746939E1,2.2040818E0,6.6122456E0,2.6938777E0,1.3444899E2,5.412245E1,2.791837E1,1.2489797E1,4.1632656E1],"tree_param":{"num_deleted":"0","num_feature":"34","num_nodes":"25","size_leaf_vector":"1"}},{"base_weights":[6.5239096E-1,1.5199091E0,-6.703403E-2,-4.9816832E-1,3.0117915E0,-5.801616E-1,2.8506783E-1,1.4754987E0,3.2943485E0,-6.6755414E-2,1.4764383E-2,2.7804525E0,-4.5386037E-1,1.7610037E0,-6.573906E-2,3.4389563E0,1.6489133E0,3.9293137E-1,3.903452E-1,3.279365E-1,-6.657293E-2,5.9824383E-1,2.2279556E0,4.0163043E-1,2.7202566E0,-6.6240214E-2,3.9830372E-1,2.7676168E-1,-5.8246095E-2,3.8940215E-1,-6.615448E-2,1.1547902E-1,3.7685955E-1,-6.4612016E-2,3.9438304E-1],"categories":[],"categories_nodes":[],"categories_segments":[],"categories_sizes":[],"default_left":[0,0,0,0,0,0,0,0,0,0,0,0,0,0,0,0,0,0,0,0,0,0,0,0,0,0,0,0,0,0,0,0,0,0,0],"id":1,"left_children":[1,3,-1,5,7,9,11,13,15,-1,-1,17,19,21,-1,23,25,27,-1,-1,-1,29,31,-1,33,-1,-1,-1,-1,-1,-1,-1,-1,-1,-1],"loss_changes":[8.342222E3,1.3767375E4,0E0,1.2502634E2,1.1363633E3,7.808838E-1,3.422348E2,2.407992E2,5.225078E2,0E0,0E0,6.0934265E1,6.11115E1,1.9427429E2,0E0,7.106055E1,7.344136E2,1.901208E1,0E0,0E0,0E0,3.443749E2,3.2656042E2,0E0,3.5041956E2,0E0,0E0,0E0,0E0,0E0,0E0,0E0,0E0,0E0,0E0],"parents":[2147483647,0,0,1,1,3,3,4,4,5,5,6,6,7,7,8,8,11,11,12,12,13,13,15,15,16,16,17,17,21,21,22,22,24,24],"right_children":[2,4,-1,6,8,10,12,14,16,-1,-1,18,20,22,-1,24,26,28,-1,-1,-1,30,32,-1,34,-1,-1,-1,-1,-1,-1,-1,-1,-1,-1],"split_conditions":[1.273E1,9.25E0,-6.703403E-2,8.63E0,3.1E1,3E0,8.9E0,1.223E1,1.261E1,-6.6755414E-2,1.4764383E-2,2.2E1,1.4E1,9.88E0,-6.573906E-2,1.223E1,5.3E1,1.2E1,3.903452E-1,3.279365E-1,-6.657293E-2,2E1,2.2E1,4.0163043E-1,1.242E1,-6.6240214E-2,3.9830372E-1,2.7676168E-1,-5.8246095E-2,3.8940215E-1,-6.615448E-2,1.1547902E-1,3.7685955E-1,-6.4612016E-2,3.9438304E-1],"split_indices":[25,25,0,25,4,9,25,25,25,0,0,4,4,25,0,25,4,4,0,0,0,4,4,0,25,0,0,0,0,0,0,0,0,0,0],"split_type":[0,0,0,0,0,0,0,0,0,0,0,0,0,0,0,0,0,0,0,0,0,0,0,0,0,0,0,0,0,0,0,0,0,0,0],"sum_hessian":[7.7811436E3,4.5712656E3,3.2098777E3,1.9432655E3,2.6280002E3,1.759347E3,1.8391838E2,4.0922452E2,2.2187756E3,1.7581226E3,1.2244899E0,4.1387756E1,1.4253062E2,3.5926532E2,4.9959187E1,2.0385308E3,1.802449E2,8.816327E0,3.257143E1,4.4081635E0,1.3812245E2,1.0359184E2,2.556735E2,1.8901226E3,1.4840817E2,8.130613E1,9.893878E1,2.2040818E0,6.6122456E0,3.0122452E1,7.346939E1,1.1902042E2,1.3665308E2,2.6448982E1,1.2195919E2],"tree_param":{"num_deleted":"0","num_feature":"34","num_nodes":"35","size_leaf_vector":"1"}},{"base_weights":[2.4916014E-1,-5.087961E-1,1.134622E0,7.7088E-1,-5.759101E-1,2.571325E0,-3.170949E-1,-3.8917872E-1,2.9216883E0,-5.2259345E-2,-6.697944E-2,1.0356432E0,2.9784546E0,6.322616E-1,-4.7821847E-1,2.5343952E-1,-5.506788E-1,1.7014681E0,3.1208427E0,-6.539631E-2,1.6215334E0,2.5454545E0,-6.669085E-2,3.2586434E0,1.5774899E0,-6.6685446E-2,3.40521E0,-6.55061E-2,-5.7717854E-1,-6.408144E-2,3.4167054E-1,3.4146328E-2,-6.5346755E-2,3.511239E-1,-5.5193216E-2,1.7049505E0,3.3386283E0,2.3741794E0,-5.1027153E-2,1.3855004E0,3.9863005E-1,-3.6575273E-1,3.380288E0,-5.6281406E-1,2.578763E0,9.9751115E-2,3.9566803E-1,-5.656788E-1,3.3551853E0,-5.2103937E-1,-6.699458E-2,-4.4394977E-2,6.643973E-2,3.4167054E-1,-5.270692E-2,3.9403576E-1,2.1309151E-1,6.643973E-2,2.9591992E-1,3.1548303E-1,-5.0476763E-2,-6.486591E-2,3.3457752E-2,4.012647E-1,3.3666107E-1,-6.6160366E-2,-1.0250434E-2,1.1409139E-1,3.9847377E-1,-6.676611E-2,-4.852215E-2,1.18115075E-1,3.9138323E-1,-6.1641116E-2,3.925164E-3],"categories":[],"categories_nodes":[],"categories_segments":[],"categories_sizes":[],"default_left":[0,0,0,0,0,0,0,0,0,0,0,0,0,0,0,0,0,0,0,0,0,0,0,0,0,0,0,0,0,0,0,0,0,0,0,0,0,0,0,0,0,0,0,0,0,0,0,0,0,0,0,0,0,0,0,0,0,0,0,0,0,0,0,0,0,0,0,0,0,0,0,0,0,0,0],"id":2,"left_children":[1,3,5,7,9,11,13,15,17,19,-1,21,23,25,27,29,31,33,35,-1,37,39,-1,41,43,-1,45,47,49,-1,-1,51,-1,-1,-1,53,55,57,-1,59,-1,61,63,65,67,-1,-1,69,71,73,-1,-1,-1,-1,-1,-1,-1,-1,-1,-1,-1,-1,-1,-1,-1,-1,-1,-1,-1,-1,-1,-1,-1,-1,-1],"loss_changes":[5.223495E3,3.6061255E2,7.4873633E3,5.2362384E2,1.4090576E1,1.1249297E3,2.7354236E2,1.434935E1,1.2548889E1,4.583692E1,0E0,9.275663E2,5.544453E2,8.74758E2,6.2356323E1,6.379479E1,1.161396E0,3.8395367E1,1.3419861E1,0E0,2.0501537E1,2.05354E2,0E0,5.2458984E2,5.147726E2,0E0,4.4093018E0,5.0934772E2,8.578491E-2,0E0,0E0,1.1796205E0,0E0,0E0,0E0,2.9621042E1,6.2402344E-1,1.8647003E0,0E0,2.2108331E2,0E0,5.3084764E0,4.7061523E1,4.141941E-1,2.2659705E2,0E0,0E0,3.192215E-1,8.854675E-1,1.0454369E0,0E0,0E0,0E0,0E0,0E0,0E0,0E0,0E0,0E0,0E0,0E0,0E0,0E0,0E0,0E0,0E0,0E0,0E0,0E0,0E0,0E0,0E0,0E0,0E0,0E0],"parents":[2147483647,0,0,1,1,2,2,3,3,4,4,5,5,6,6,7,7,8,8,9,9,11,11,12,12,13,13,14,14,15,15,16,16,17,17,18,18,20,20,21,21,23,23,24,24,26,26,27,27,28,28,31,31,35,35,36,36,37,37,39,39,41,41,42,42,43,43,44,44,47,47,48,48,49,49],"right_children":[2,4,6,8,10,12,14,16,18,20,-1,22,24,26,28,30,32,34,36,-1,38,40,-1,42,44,-1,46,48,50,-1,-1,52,-1,-1,-1,54,56,58,-1,60,-1,62,64,66,68,-1,-1,70,72,74,-1,-1,-1,-1,-1,-1,-1,-1,-1,-1,-1,-1,-1,-1,-1,-1,-1,-1,-1,-1,-1,-1,-1,-1,-1],"split_conditions":[1.223E1,2.2E1,1.483E1,1.074E1,2.4E1,1.273E1,1.528E1,1.2E1,1.099E1,1.171E1,-6.697944E-2,5.3E1,1.435E1,1.523E1,1.599E1,9.99E0,7.43E0,1.4E1,1.2E1,-6.539631E-2,1.218E1,3.8E1,-6.669085E-2,2.3E1,4.1E1,-6.6685446E-2,5.7E1,1.596E1,1.629E1,-6.408144E-2,3.4167054E-1,3.2E3,-6.5346755E-2,3.511239E-1,-5.5193216E-2,1.158E1,2.1E1,2E3,-5.1027153E-2,3.1E1,3.9863005E-1,2.1E1,1.399E1,7.7E1,1.461E1,9.9751115E-2,3.9566803E-1,5.3E1,6.9E1,2E0,-6.699458E-2,-4.4394977E-2,6.643973E-2,3.4167054E-1,-5.270692E-2,3.9403576E-1,2.1309151E-1,6.643973E-2,2.9591992E-1,3.1548303E-1,-5.0476763E-2,-6.486591E-2,3.3457752E-2,4.012647E-1,3.3666107E-1,-6.6160366E-2,-1.0250434E-2,1.1409139E-1,3.9847377E-1,-6.676611E-2,-4.852215E-2,1.18115075E-1,3.9138323E-1,-6.1641116E-2,3.925164E-3],"split_indices":[25,4,25,25,4,25,25,4,25,25,0,4,25,25,25,25,25,4,4,0,25,4,0,4,4,0,21,25,25,0,0,0,0,0,0,25,4,0,0,4,0,4,25,21,25,0,0,4,23,6,0,0,0,0,0,0,0,0,0,0,0,0,0,0,0,0,0,0,0,0,0,0,0,0,0],"split_type":[0,0,0,0,0,0,0,0,0,0,0,0,0,0,0,0,0,0,0,0,0,0,0,0,0,0,0,0,0,0,0,0,0,0,0,0,0,0,0,0,0,0,0,0,0,0,0,0,0,0,0,0,0,0,0,0,0,0,0,0,0,0,0,0,0,0,0,0,0,0,0,0,0,0,0],"sum_hessian":[7.7811436E3,4.1926533E3,3.58849E3,2.0840817E2,3.984245E3,1.8031838E3,1.7853063E3,1.3591838E2,7.24898E1,5.0938778E1,3.9333064E3,3.7861227E2,1.4245715E3,2.5861227E2,1.526694E3,2.7183676E1,1.087347E2,1.1510205E1,6.0979595E1,3.9428574E1,1.1510205E1,1.9542859E2,1.8318369E2,1.1860409E3,2.3853062E2,1.804898E2,7.812245E1,2.9559186E2,1.2311022E3,2.1551022E1,5.632653E0,3.1836736E0,1.05551025E2,6.8571434E0,4.6530614E0,9.306123E0,5.1673473E1,8.326531E0,3.1836736E0,8.767348E1,1.0775511E2,3.8448982E1,1.1475919E3,7.616327E1,1.6236736E2,1.4693879E0,7.665307E1,2.5861227E2,3.6979595E1,1.207347E2,1.1103674E3,1.9591838E0,1.2244899E0,5.632653E0,3.6734695E0,4.751021E1,4.1632657E0,1.2244899E0,7.1020412E0,4.9959187E1,3.7714287E1,2.9632656E1,8.816327E0,9.1665314E2,2.309388E2,7.395919E1,2.2040818E0,5.9020412E1,1.0334695E2,2.3118369E2,2.7428574E1,1.2244899E0,3.5755104E1,1.17551025E2,3.1836736E0],"tree_param":{"num_deleted":"0","num_feature":"34","num_nodes":"75","size_leaf_vector":"1"}},{"base_weights":[-3.7778813E-2,-5.2800745E-1,1.3563703E0,3.4311336E-2,-5.5833495E-1,1.976878E0,-3.293563E-1,-4.8414984E-1,2.6693175E0,-5.818841E-1,-2.463706E-2,2.2699342E0,1.4602674E0,6.056137E-1,-6.636715E-2,-5.759871E-1,1.2431106E-1,2.8087773E0,5.121951E-1,-5.820749E-1,6.650073E-3,3.8128984E-1,-3.2337502E-1,2.9330668E0,9.711188E-1,-2.4885151E-1,3.9339173E-1,-3.7824327E-1,3.8898206E-1,-5.5493736E-3,-6.6740945E-2,2.290909E0,-5.235158E-1,3.0890687E0,1.6835442E0,1.6979042E-1,-4.4394977E-2,-4.6107784E-1,-6.699775E-2,3.0296123E-1,-6.661406E-2,-4.1342282E-1,3.011756E0,-5.36208E-1,2.4792967E0,1.4380664E0,-5.7680327E-1,-5.0064087E-1,1.0429798E0,3.2440796E-1,1.0669511E-1,-6.431912E-2,-5.5493736E-3,6.643973E-2,3.6351877E-1,-3.3400938E-2,3.4383053E-1,-6.516767E-2,1.1098744E-1,3.745239E-1,-6.569325E-2,-6.1896842E-2,2.5626078E-2,1.3049589E-1,3.6139625E-1,6.643973E-2,-6.3035905E-2,1.5168862E-1,3.888297E-1,-6.2172756E-2,2.509509E-1,-6.677696E-2,1.4764383E-2,-6.5919176E-2,-3.1973206E-2,-5.191348E-2,2.9341155E-1],"categories":[],"categories_nodes":[],"categories_segments":[],"categories_sizes":[],"default_left":[0,0,0,0,0,0,0,0,0,0,0,0,0,0,0,0,0,0,0,0,0,0,0,0,0,0,0,0,0,0,0,0,0,0,0,0,0,0,0,0,0,0,0,0,0,0,0,0,0,0,0,0,0,0,0,0,0,0,0,0,0,0,0,0,0,0,0,0,0,0,0,0,0,0,0,0,0],"id":3,"left_children":[1,3,5,7,9,11,13,15,17,19,21,23,25,27,-1,29,31,33,35,37,-1,-1,39,41,43,45,-1,47,-1,-1,-1,49,51,53,55,-1,-1,57,-1,59,-1,61,63,65,67,69,71,73,75,-1,-1,-1,-1,-1,-1,-1,-1,-1,-1,-1,-1,-1,-1,-1,-1,-1,-1,-1,-1,-1,-1,-1,-1,-1,-1,-1,-1],"loss_changes":[5.319436E3,9.821973E1,2.1186433E3,4.051426E2,6.8654175E1,2.2077979E2,1.2686855E2,1.3921711E1,1.3228424E1,6.722412E-1,2.326089E2,8.090288E2,1.8067521E3,3.1528885E2,0E0,4.968567E-1,4.7975792E1,9.172302E0,4.1970296E0,2.1313477E-1,0E0,0E0,3.447582E1,1.6543994E2,7.290228E2,1.6057681E2,0E0,1.5436075E1,0E0,0E0,0E0,3.0684853E0,4.260683E-1,4.6673584E0,3.000042E1,0E0,0E0,6.207861E0,0E0,1.6392365E2,0E0,1.3298087E0,1.4753662E2,2.4976273E0,1.6333209E2,7.089795E1,7.77771E-1,1.1302471E0,1.7221674E1,0E0,0E0,0E0,0E0,0E0,0E0,0E0,0E0,0E0,0E0,0E0,0E0,0E0,0E0,0E0,0E0,0E0,0E0,0E0,0E0,0E0,0E0,0E0,0E0,0E0,0E0,0E0,0E0],"parents":[2147483647,0,0,1,1,2,2,3,3,4,4,5,5,6,6,7,7,8,8,9,9,10,10,11,11,12,12,13,13,15,15,16,16,17,17,18,18,19,19,22,22,23,23,24,24,25,25,27,27,31,31,32,32,33,33,34,34,37,37,39,39,41,41,42,42,43,43,44,44,45,45,46,46,47,47,48,48],"right_children":[2,4,6,8,10,12,14,16,18,20,22,24,26,28,-1,30,32,34,36,38,-1,-1,40,42,44,46,-1,48,-1,-1,-1,50,52,54,56,-1,-1,58,-1,60,-1,62,64,66,68,70,72,74,76,-1,-1,-1,-1,-1,-1,-1,-1,-1,-1,-1,-1,-1,-1,-1,-1,-1,-1,-1,-1,-1,-1,-1,-1,-1,-1,-1,-1],"split_conditions":[1.435E1,2.3E1,1.793E1,1.242E1,1.399E1,1.632E1,1.839E1,1.183E1,1.417E1,3.5906794E3,3.1E1,5.2E1,5.2E1,5.7E1,-6.636715E-2,7.14E0,1.3E1,2E1,1.2E4,2.4E1,6.650073E-3,3.8128984E-1,1.417E1,2.3E1,1.528E1,1.64E1,3.9339173E-1,5.6E1,3.8898206E-1,-5.5493736E-3,-6.6740945E-2,4.7E1,1.6559523E0,8E0,1.306E1,1.6979042E-1,-4.4394977E-2,1.348E1,-6.699775E-2,4.9E1,-6.661406E-2,1.07E5,1.446E1,1E0,1.599E1,3.7E1,9.1352E2,5.3E1,1.825E1,3.2440796E-1,1.0669511E-1,-6.431912E-2,-5.5493736E-3,6.643973E-2,3.6351877E-1,-3.3400938E-2,3.4383053E-1,-6.516767E-2,1.1098744E-1,3.745239E-1,-6.569325E-2,-6.1896842E-2,2.5626078E-2,1.3049589E-1,3.6139625E-1,6.643973E-2,-6.3035905E-2,1.5168862E-1,3.888297E-1,-6.2172756E-2,2.509509E-1,-6.677696E-2,1.4764383E-2,-6.5919176E-2,-3.1973206E-2,-5.191348E-2,2.9341155E-1],"split_indices":[25,4,25,25,25,25,25,25,25,20,4,4,4,4,0,25,4,4,16,4,0,0,25,4,25,25,0,4,0,0,0,21,7,4,25,0,0,25,0,4,0,3,25,10,25,4,2,4,25,0,0,0,0,0,0,0,0,0,0,0,0,0,0,0,0,0,0,0,0,0,0,0,0,0,0,0,0],"split_type":[0,0,0,0,0,0,0,0,0,0,0,0,0,0,0,0,0,0,0,0,0,0,0,0,0,0,0,0,0,0,0,0,0,0,0,0,0,0,0,0,0,0,0,0,0,0,0,0,0,0,0,0,0,0,0,0,0,0,0,0,0,0,0,0,0,0,0,0,0,0,0,0,0,0,0,0,0],"sum_hessian":[7.7811436E3,5.7573066E3,2.0238369E3,2.9461227E2,5.4626943E3,1.4791838E3,5.446531E2,2.4685716E2,4.7755104E1,5.2317554E3,2.309388E2,9.416327E2,5.375511E2,1.13877556E2,4.3077554E2,2.1453062E2,3.2326534E1,4.457143E1,3.1836736E0,5.230286E3,1.4693879E0,1.812245E1,2.1281635E2,6.2253064E2,3.1910205E2,2.8775513E2,2.4979593E2,8.47347E1,2.9142859E1,1.9591838E0,2.1257144E2,6.8571434E0,2.5469389E1,3.4285717E1,1.0285715E1,1.2244899E0,1.9591838E0,3.64898E1,5.1937964E3,6.171429E1,1.5110205E2,1.42040825E1,6.083266E2,1.5991838E2,1.5918369E2,4.6285717E1,2.414694E2,7.861225E1,6.1224494E0,4.1632657E0,2.6938777E0,2.3510206E1,1.9591838E0,1.2244899E0,3.3061226E1,4.4081635E0,5.8775516E0,3.4530613E1,1.9591838E0,1.3469389E1,4.82449E1,1.2000001E1,2.2040818E0,4.0653065E1,5.676735E2,1.2244899E0,1.586939E2,7.077551E1,8.840817E1,1.27346945E1,3.355102E1,2.4024492E2,1.2244899E0,5.804082E1,2.057143E1,3.4285717E0,2.6938777E0],"tree_param":{"num_deleted":"0","num_feature":"34","num_nodes":"77","size_leaf_vector":"1"}},{"base_weights":[-2.9105094E-1,-5.578729E-1,1.3595906E0,-5.7341766E-1,-2.104407E-1,1.5991602E0,-5.4568315E-1,-3.952403E-1,-5.8225536E-1,2.578107E0,-3.9341798E-1,2.0529482E0,1.2447659E0,-2.9690048E-1,-5.689687E-1,-5.505618E-1,2.7184465E0,-6.694979E-2,-1.2621424E-9,-5.0030608E-2,3.6775E-1,-6.207467E-2,-6.666877E-2,3.043234E0,-5.696959E-1,-1.5001619E-1,3.1612096E0,-4.4303796E-1,6.643973E-2,6.650073E-3,-6.643835E-2,-5.777746E-1,4.1567692E-1,6.643973E-2,3.29898E-1,-4.7617835E-1,1.6115106E0,1.3957703E0,3.3321254E0,-6.645325E-2,-3.032491E-1,-5.172105E-1,1.2602184E0,3.9665684E-1,1.5802739E0,1.4764383E-2,-6.039023E-2,-6.6817865E-2,-5.5493736E-3,2.5410283E-1,-4.0591106E-2,6.670748E-2,-6.022705E-2,3.591913E-1,2.84835E-2,3.6466712E-1,7.4619874E-2,1.5340118E-1,3.9237785E-1,1.4764383E-2,-5.191348E-2,-1.2502471E-2,-6.622368E-2,3.6805025E-1,-6.511416E-2,-3.305626E-2,3.8155586E-1],"categories":[],"categories_nodes":[],"categories_segments":[],"categories_sizes":[],"default_left":[0,0,0,0,0,0,0,0,0,0,0,0,0,0,0,0,0,0,0,0,0,0,0,0,1,0,0,0,0,0,0,0,0,0,0,0,0,0,0,0,0,0,0,0,0,0,0,0,0,0,0,0,0,0,0,0,0,0,0,0,0,0,0,0,0,0,0],"id":4,"left_children":[1,3,5,7,9,11,13,15,17,19,21,23,25,27,29,31,33,-1,-1,-1,-1,35,-1,37,39,41,43,45,-1,-1,-1,47,49,-1,-1,51,53,55,57,-1,59,61,63,-1,65,-1,-1,-1,-1,-1,-1,-1,-1,-1,-1,-1,-1,-1,-1,-1,-1,-1,-1,-1,-1,-1,-1],"loss_changes":[3.4282278E3,3.606421E1,4.9529614E2,9.867432E0,1.4822398E2,1.52229E2,5.362892E-1,1.4955421E2,5.812988E-1,3.488855E1,1.6753479E1,1.0938693E3,1.4518157E3,1.8555359E0,6.553116E-1,7.9292984E0,3.1111603E0,0E0,0E0,0E0,0E0,6.934983E1,0E0,1.4070459E2,8.464813E-2,1.6387396E2,9.9223145E1,5.9838367E-1,0E0,0E0,0E0,4.9930573E-1,1.2636164E1,0E0,0E0,4.345587E0,4.020307E1,6.066288E1,3.7529053E1,0E0,4.200675E-1,5.970024E0,2.337912E2,0E0,1.2193318E2,0E0,0E0,0E0,0E0,0E0,0E0,0E0,0E0,0E0,0E0,0E0,0E0,0E0,0E0,0E0,0E0,0E0,0E0,0E0,0E0,0E0,0E0],"parents":[2147483647,0,0,1,1,2,2,3,3,4,4,5,5,6,6,7,7,8,8,9,9,10,10,11,11,12,12,13,13,14,14,15,15,16,16,21,21,23,23,24,24,25,25,26,26,27,27,31,31,32,32,35,35,36,36,37,37,38,38,40,40,41,41,42,42,44,44],"right_children":[2,4,6,8,10,12,14,16,18,20,22,24,26,28,30,32,34,-1,-1,-1,-1,36,-1,38,40,42,44,46,-1,-1,-1,48,50,-1,-1,52,54,56,58,-1,60,62,64,-1,66,-1,-1,-1,-1,-1,-1,-1,-1,-1,-1,-1,-1,-1,-1,-1,-1,-1,-1,-1,-1,-1,-1],"split_conditions":[1.632E1,1.565E1,2.053E1,2.3E1,3.1E1,5.2E1,5.76E0,1.417E1,1.1020965E2,1.6E1,4.9E1,1.799E1,1.839E1,5.64E0,3.2E3,1.372E1,2.6938936E3,-6.694979E-2,-1.2621424E-9,-5.0030608E-2,3.6775E-1,4.6E1,-6.666877E-2,1.64E1,9.93E1,1.793E1,2.025E1,1.5350877E0,6.643973E-2,6.650073E-3,-6.643835E-2,4.22367E3,1.3E1,6.643973E-2,3.29898E-1,3.2E1,4.8E1,3.7E1,3.1E1,-6.645325E-2,5.4E3,5.3E1,1.825E1,3.9665684E-1,5.7E1,1.4764383E-2,-6.039023E-2,-6.6817865E-2,-5.5493736E-3,2.5410283E-1,-4.0591106E-2,6.670748E-2,-6.022705E-2,3.591913E-1,2.84835E-2,3.6466712E-1,7.4619874E-2,1.5340118E-1,3.9237785E-1,1.4764383E-2,-5.191348E-2,-1.2502471E-2,-6.622368E-2,3.6805025E-1,-6.511416E-2,-3.305626E-2,3.8155586E-1],"split_indices":[25,25,25,4,4,4,8,25,18,4,4,25,25,8,0,25,15,0,0,0,0,4,0,25,27,25,25,7,0,0,0,17,4,0,0,4,4,4,4,0,0,4,25,0,4,0,0,0,0,0,0,0,0,0,0,0,0,0,0,0,0,0,0,0,0,0,0],"split_type":[0,0,0,0,0,0,0,0,0,0,0,0,0,0,0,0,0,0,0,0,0,0,0,0,0,0,0,0,0,0,0,0,0,0,0,0,0,0,0,0,0,0,0,0,0,0,0,0,0,0,0,0,0,0,0,0,0,0,0,0,0,0,0,0,0,0,0],"sum_hessian":[7.7811436E3,6.6989395E3,1.0822041E3,6.411429E3,2.8751022E2,9.614695E2,1.207347E2,3.0514288E2,6.106286E3,1.689796E1,2.7061227E2,4.1951022E2,5.419592E2,1.1510205E1,1.09224495E2,2.914286E2,1.3714287E1,6.104572E3,1.7142859E0,2.9387758E0,1.3959185E1,9.795919E1,1.7265308E2,3.0440817E2,1.1510205E2,3.142041E2,2.2775511E2,1.0285715E1,1.2244899E0,1.4693879E0,1.0775511E2,2.8383676E2,7.5918374E0,1.2244899E0,1.2489797E1,7.910204E1,1.8857143E1,4.6285717E1,2.5812247E2,1.1044899E2,4.6530614E0,2.4979593E2,6.4408165E1,1.9151022E2,3.62449E1,1.2244899E0,9.061225E0,2.8187756E2,1.9591838E0,1.7142859E0,5.8775516E0,2.9387758E0,7.616327E1,8.326531E0,1.0530613E1,1.27346945E1,3.355102E1,1.0775511E1,2.4734695E2,1.2244899E0,3.4285717E0,3.1836737E1,2.179592E2,3.0857145E1,3.355102E1,1.7877552E1,1.8367348E1],"tree_param":{"num_deleted":"0","num_feature":"34","num_nodes":"67","size_leaf_vector":"1"}},{"base_weights":[-4.7544745E-1,-5.758089E-1,9.017013E-1,-5.790738E-1,-2.5644505E-1,2.276673E0,4.319694E-1,-5.0306404E-1,-5.8180493E-1,2.6636985E-1,-3.5692394E-1,3.2367725E0,-6.512782E-2,-5.4213995E-1,2.2214587E0,-5.7306284E-1,2.9513443E-1,-6.7044996E-2,-5.185509E-1,4.902722E-2,-6.565853E-2,9.5850617E-1,3.319131E0,-2.4854745E-1,-6.675861E-2,2.6594784E0,9.116824E-1,-6.678544E-2,1.1602208E-1,2.8567773E-1,-6.663821E-2,-4.649205E-1,2.1132073E0,2.2752425E-1,-4.4394977E-2,3.9631316E-1,2.0987866E0,2.089552E-1,-4.2781222E-1,1.2580822E0,3.8962433E-1,-1.6384916E-1,1.643592E0,-3.9900444E-2,6.643973E-2,-6.367805E-2,3.329623E-2,8.470094E-2,2.9341155E-1,3.7522953E-2,3.047669E-1,-5.8520652E-2,2.5410283E-1,5.320059E-2,-5.861754E-2,3.5057032E-1,-6.359265E-2,8.470094E-2,-3.7589908E-2,2.412582E-1,1.1601367E-1],"categories":[],"categories_nodes":[],"categories_segments":[],"categories_sizes":[],"default_left":[0,0,0,0,0,0,0,0,0,0,0,0,0,0,0,0,0,0,0,0,0,0,0,0,0,0,0,0,0,0,0,0,0,0,0,0,0,0,0,0,0,0,0,0,0,0,0,0,0,0,0,0,0,0,0,0,0,0,0,0,0],"id":5,"left_children":[1,3,5,7,9,11,13,15,17,-1,19,21,-1,23,25,27,-1,-1,29,31,-1,33,35,37,-1,39,41,-1,43,-1,-1,45,47,-1,-1,-1,49,51,53,55,-1,57,59,-1,-1,-1,-1,-1,-1,-1,-1,-1,-1,-1,-1,-1,-1,-1,-1,-1,-1],"loss_changes":[1.0761096E3,7.4155273E0,3.4068082E2,1.1977539E0,2.027494E1,3.6890778E2,6.906768E2,5.6586548E1,3.293457E-1,0E0,6.3988314E0,1.5708252E1,0E0,2.7684174E0,7.7672E1,1.4412231E0,0E0,0E0,3.145161E1,2.880353E1,0E0,7.515811E0,7.9404297E0,2.6820443E0,0E0,1.0223352E2,2.9009844E1,0E0,9.9091613E-1,0E0,0E0,1.6261787E0,1.3890419E0,0E0,0E0,0E0,1.0665146E1,1.488161E1,1.9211907E0,1.2255444E2,0E0,2.5472486E0,4.1813354E0,0E0,0E0,0E0,0E0,0E0,0E0,0E0,0E0,0E0,0E0,0E0,0E0,0E0,0E0,0E0,0E0,0E0,0E0],"parents":[2147483647,0,0,1,1,2,2,3,3,4,4,5,5,6,6,7,7,8,8,10,10,11,11,13,13,14,14,15,15,18,18,19,19,21,21,22,22,23,23,25,25,26,26,28,28,31,31,32,32,36,36,37,37,38,38,39,39,41,41,42,42],"right_children":[2,4,6,8,10,12,14,16,18,-1,20,22,-1,24,26,28,-1,-1,30,32,-1,34,36,38,-1,40,42,-1,44,-1,-1,46,48,-1,-1,-1,50,52,54,56,-1,58,60,-1,-1,-1,-1,-1,-1,-1,-1,-1,-1,-1,-1,-1,-1,-1,-1,-1,-1],"split_conditions":[1.799E1,1.758E1,5.2E1,2.1E1,3.2E1,1.991E1,2.025E1,1.558E1,1.714E1,2.6636985E-1,4.9E1,3.1E1,-6.512782E-2,5.3E1,2.206E1,1.491E1,2.9513443E-1,-6.7044996E-2,3.1E1,4.6E1,-6.565853E-2,1.862E1,1.942E1,1.839E1,-6.675861E-2,2.053E1,5.7E1,-6.678544E-2,1.5930233E0,2.8567773E-1,-6.663821E-2,4.5E1,1.6083499E0,2.2752425E-1,-4.4394977E-2,3.9631316E-1,1.969E1,1.825E1,1.3639113E0,5.7E1,3.8962433E-1,6.6E1,8.72E1,-3.9900444E-2,6.643973E-2,-6.367805E-2,3.329623E-2,8.470094E-2,2.9341155E-1,3.7522953E-2,3.047669E-1,-5.8520652E-2,2.5410283E-1,5.320059E-2,-5.861754E-2,3.5057032E-1,-6.359265E-2,8.470094E-2,-3.7589908E-2,2.412582E-1,1.1601367E-1],"split_indices":[25,25,4,4,4,25,25,25,25,0,4,4,0,4,25,25,0,0,4,4,0,25,25,25,0,25,4,0,7,0,0,4,6,0,0,0,25,25,5,4,0,21,27,0,0,0,0,0,0,0,0,0,0,0,0,0,0,0,0,0,0],"split_type":[0,0,0,0,0,0,0,0,0,0,0,0,0,0,0,0,0,0,0,0,0,0,0,0,0,0,0,0,0,0,0,0,0,0,0,0,0,0,0,0,0,0,0,0,0,0,0,0,0,0,0,0,0,0,0,0,0,0,0,0,0],"sum_hessian":[7.7811436E3,7.2531436E3,5.2800006E2,7.1789395E3,7.420409E1,1.3346939E2,3.9453064E2,2.5542859E2,6.9235107E3,1.9591838E0,7.22449E1,9.967348E1,3.379592E1,2.5591838E2,1.3861226E2,2.5053062E2,4.8979597E0,6.7611436E3,1.6236736E2,2.5224491E1,4.7020412E1,3.9183676E0,9.575511E1,3.0612247E1,2.2530614E2,1.0310205E2,3.551021E1,2.4783675E2,2.6938777E0,2.4489799E0,1.5991838E2,2.0816328E1,4.4081635E0,1.9591838E0,1.9591838E0,8.49796E1,1.0775511E1,8.571429E0,2.2040817E1,3.62449E1,6.685715E1,1.4693878E1,2.0816328E1,1.4693879E0,1.2244899E0,1.8857143E1,1.9591838E0,1.7142859E0,2.6938777E0,2.9387758E0,7.8367352E0,6.8571434E0,1.7142859E0,1.4693879E0,2.057143E1,1.7877552E1,1.8367348E1,1.7142859E0,1.2979592E1,1.0775511E1,1.0040817E1],"tree_param":{"num_deleted":"0","num_feature":"34","num_nodes":"61","size_leaf_vector":"1"}},{"base_weights":[-5.5074805E-1,-5.802272E-1,6.2675375E-1,-5.819296E-1,-3.313139E-1,3.9076692E-1,7.2906995E-3,-6.699954E-2,-5.0926846E-1,1.2603878E0,-6.5644145E-2,-5.7027435E-1,1.9250977E0,2.5410283E-1,-6.638885E-2,1.6425992E0,-1.2621424E-9,-6.6484585E-2,-2.4454148E-1,2.8946683E0,1.1393825E0,5.320059E-2,2.2373444E-1,-4.7612958E-2,1.4764383E-2,1.2705141E-1,3.488813E-1,5.701906E-1,1.6432531E0,1.0487689E-1,-4.8901927E-2,-1.2621424E-9,2.236142E-1],"categories":[],"categories_nodes":[],"categories_segments":[],"categories_sizes":[],"default_left":[0,0,0,0,0,0,0,0,0,0,0,1,0,0,0,0,0,0,0,0,0,0,0,0,0,0,0,0,0,0,0,0,0],"id":6,"left_children":[1,3,5,7,9,-1,11,-1,13,15,-1,17,19,-1,-1,21,-1,-1,23,25,27,-1,-1,-1,-1,-1,-1,29,31,-1,-1,-1,-1],"loss_changes":[2.7049585E2,3.024414E0,3.2725806E2,2.0825195E-1,2.1287495E1,0E0,1.7472893E2,0E0,2.028821E1,3.5491066E0,0E0,1.7835999E-1,2.451558E1,0E0,0E0,1.1249981E0,0E0,0E0,3.4893724E-1,5.874176E-1,5.3199368E0,0E0,0E0,0E0,0E0,0E0,0E0,4.3996353E0,5.479906E0,0E0,0E0,0E0,0E0],"parents":[2147483647,0,0,1,1,2,2,3,3,4,4,6,6,8,8,9,9,11,11,12,12,15,15,18,18,19,19,20,20,27,27,28,28],"right_children":[2,4,6,8,10,-1,12,-1,14,16,-1,18,20,-1,-1,22,-1,-1,24,26,28,-1,-1,-1,-1,-1,-1,30,32,-1,-1,-1,-1],"split_conditions":[1.991E1,1.942E1,5.2E1,1.879E1,4.9E1,3.9076692E-1,2.206E1,-6.699954E-2,3.1E1,9.2004E4,-6.5644145E-2,9.93E1,5.7E1,2.5410283E-1,-6.638885E-2,8.2E3,-1.2621424E-9,-6.6484585E-2,1.76E4,6.6E1,8.72E1,5.320059E-2,2.2373444E-1,-4.7612958E-2,1.4764383E-2,1.2705141E-1,3.488813E-1,1.6180203E0,1.4588236E0,1.0487689E-1,-4.8901927E-2,-1.2621424E-9,2.236142E-1],"split_indices":[25,25,4,25,4,0,25,0,4,3,0,27,4,0,0,0,0,0,0,21,27,0,0,0,0,0,0,7,6,0,0,0,0],"split_type":[0,0,0,0,0,0,0,0,0,0,0,0,0,0,0,0,0,0,0,0,0,0,0,0,0,0,0,0,0,0,0,0,0],"sum_hessian":[7.7811436E3,7.5915923E3,1.8955104E2,7.5386943E3,5.2897964E1,3.379592E1,1.5575511E2,7.4373066E3,1.01387764E2,6.3673472E0,4.6530617E1,1.202449E2,3.551021E1,1.7142859E0,9.967348E1,4.6530614E0,1.7142859E0,1.16571434E2,3.6734695E0,1.4693878E1,2.0816328E1,1.4693879E0,3.1836736E0,2.4489799E0,1.2244899E0,1.7142859E0,1.2979592E1,1.0775511E1,1.0040817E1,8.081634E0,2.6938777E0,1.7142859E0,8.326531E0],"tree_param":{"num_deleted":"0","num_feature":"34","num_nodes":"33","size_leaf_vector":"1"}},{"base_weights":[4.006126E-1,2.2934868E0,-5.480039E-1,2.725995E-1,1.7067778E0,5.13171E-1,-6.619038E-2,6.49295E-2,1.949207E0,1.5905908E0,-6.5246575E-2,1.719468E0,-6.4125635E-2,-6.1982293E-2,2.0855486E0,-6.277625E-2,2.7063435E-1,-4.535709E-2,2.5583264E-1,2.7240047E-1,1.3759564E0,2.7049002E-1,-6.376384E-2],"categories":[],"categories_nodes":[],"categories_segments":[],"categories_sizes":[],"default_left":[0,0,0,0,0,0,0,0,0,0,0,0,0,0,0,0,0,0,0,0,0,0,0],"id":7,"left_children":[1,3,5,-1,7,9,-1,11,13,15,-1,17,-1,-1,19,-1,-1,-1,-1,-1,21,-1,-1],"loss_changes":[1.4555953E4,1.1971777E2,1.5966113E2,0E0,1.27619385E2,1.621041E2,0E0,4.4573257E1,9.5991455E1,1.14847534E2,0E0,1.3524849E1,0E0,0E0,5.0232544E1,0E0,0E0,0E0,0E0,0E0,1.4891383E2,0E0,0E0],"parents":[2147483647,0,0,1,1,2,2,4,4,5,5,7,7,8,8,9,9,11,11,14,14,20,20],"right_children":[2,4,6,-1,8,10,-1,12,14,16,-1,18,-1,-1,20,-1,-1,-1,-1,-1,22,-1,-1],"split_conditions":[9.62E0,8.63E0,9.88E0,2.725995E-1,8.9E0,3.2E1,-6.619038E-2,2.2E1,1.9E1,2E1,-6.5246575E-2,1.2E1,-6.4125635E-2,-6.1982293E-2,9.25E0,-6.277625E-2,2.7063435E-1,-4.535709E-2,2.5583264E-1,2.7240047E-1,3.2E1,2.7049002E-1,-6.376384E-2],"split_indices":[25,25,25,0,25,4,0,4,4,4,0,4,0,0,25,0,0,0,0,0,4,0,0],"split_type":[0,0,0,0,0,0,0,0,0,0,0,0,0,0,0,0,0,0,0,0,0,0,0],"sum_hessian":[8.104703E3,2.7052383E3,5.3994644E3,2.3852944E3,3.1994385E2,1.37436E2,5.262029E3,4.132675E1,2.786171E2,6.858854E1,6.884746E1,1.0820088E1,3.0506664E1,1.4319166E1,2.6429794E2,1.813581E1,5.045273E1,2.1325662E0,8.687522E0,1.870533E2,7.724464E1,5.1142216E1,2.6102423E1],"tree_param":{"num_deleted":"0","num_feature":"34","num_nodes":"23","size_leaf_vector":"1"}},{"base_weights":[5.6592184E-1,1.217132E0,-6.618697E-2,-4.8695308E-1,2.1260061E0,-5.724198E-1,2.6029533E-1,1.19174E0,2.273325E0,-6.586955E-2,1.5255069E-2,2.0211E0,-4.4100028E-1,1.3880062E0,-6.488311E-2,2.346554E0,1.3063852E0,3.662372E-1,2.696806E-1,2.4717478E-1,-6.568643E-2,5.243134E-1,1.6874576E0,2.7286318E-1,1.9681834E0,-6.5339655E-2,2.7200353E-1,2.2256826E-1,-5.7236608E-2,2.6954335E-1,-6.526369E-2,9.179438E-2,2.581378E-1,-6.364218E-2,2.699374E-1],"categories":[],"categories_nodes":[],"categories_segments":[],"categories_sizes":[],"default_left":[0,0,0,0,0,0,0,0,0,0,0,0,0,0,0,0,0,0,0,0,0,0,0,0,0,0,0,0,0,0,0,0,0,0,0],"id":8,"left_children":[1,3,-1,5,7,9,11,13,15,-1,-1,17,19,21,-1,23,25,27,-1,-1,-1,29,31,-1,33,-1,-1,-1,-1,-1,-1,-1,-1,-1,-1],"loss_changes":[6.1446133E3,8.1515645E3,0E0,1.17103546E2,4.6968164E2,7.732544E-1,2.3383627E2,1.6264111E2,2.0678223E2,0E0,0E0,2.8130905E1,4.710231E1,1.0843317E2,0E0,2.3643555E1,4.204051E2,1.4576319E1,0E0,0E0,0E0,2.2056012E2,1.5370679E2,0E0,1.8377838E2,0E0,0E0,0E0,0E0,0E0,0E0,0E0,0E0,0E0,0E0],"parents":[2147483647,0,0,1,1,3,3,4,4,5,5,6,6,7,7,8,8,11,11,12,12,13,13,15,15,16,16,17,17,21,21,22,22,24,24],"right_children":[2,4,-1,6,8,10,12,14,16,-1,-1,18,20,22,-1,24,26,28,-1,-1,-1,30,32,-1,34,-1,-1,-1,-1,-1,-1,-1,-1,-1,-1],"split_conditions":[1.273E1,9.25E0,-6.618697E-2,8.63E0,3.1E1,3E0,8.9E0,1.223E1,1.261E1,-6.586955E-2,1.5255069E-2,2.2E1,1.4E1,9.88E0,-6.488311E-2,1.223E1,5.3E1,1.2E1,2.696806E-1,2.4717478E-1,-6.568643E-2,2E1,2.1E1,2.7286318E-1,1.242E1,-6.5339655E-2,2.7200353E-1,2.2256826E-1,-5.7236608E-2,2.6954335E-1,-6.526369E-2,9.179438E-2,2.581378E-1,-6.364218E-2,2.699374E-1],"split_indices":[25,25,0,25,4,9,25,25,25,0,0,4,4,25,0,25,4,4,0,0,0,4,4,0,25,0,0,0,0,0,0,0,0,0,0],"split_type":[0,0,0,0,0,0,0,0,0,0,0,0,0,0,0,0,0,0,0,0,0,0,0,0,0,0,0,0,0,0,0,0,0,0,0],"sum_hessian":[8.262616E3,5.2614834E3,3.0011326E3,1.8302806E3,3.431203E3,1.6426375E3,1.8764314E2,4.6858994E2,2.9626128E3,1.6414244E3,1.2130651E0,5.2911537E1,1.3473161E2,4.2167435E2,4.6915592E1,2.7527153E3,2.0989748E2,9.033406E0,4.387813E1,5.7144613E0,1.2901715E2,1.0926823E2,3.1240613E2,2.563342E3,1.8937325E2,7.597281E1,1.3392467E2,2.766609E0,6.2667975E0,4.0539433E1,6.872879E1,1.2143958E2,1.9096654E2,2.474426E1,1.6462898E2],"tree_param":{"num_deleted":"0","num_feature":"34","num_nodes":"35","size_leaf_vector":"1"}},{"base_weights":[2.2559436E-1,-4.9787065E-1,9.4096714E-1,6.689427E-1,-5.679429E-1,1.883609E0,-3.0447268E-1,-3.78933E-1,2.1514308E0,-3.9207157E-2,-6.610842E-2,8.692083E-1,2.1109598E0,2.3387781E-1,-5.694603E-1,2.3723845E-1,-5.436963E-1,1.3737278E0,2.2655842E0,-6.44908E-2,1.3952953E0,1.8733083E0,-6.581604E-2,-3.7362587E-1,2.1670802E0,-6.608275E-2,1.8736594E0,-5.101994E-1,-6.614681E-2,-6.321172E-2,2.5854647E-1,4.6913184E-2,-6.463443E-2,2.6250437E-1,-5.4880675E-2,1.4160419E0,2.7320993E-1,1.9460468E0,-4.9862612E-2,1.1325436E0,2.7213466E-1,-6.422596E-2,2.3157181E-1,2.319077E0,1.2961056E0,-4.086525E-1,2.0591297E0,-5.2617854E-1,4.4205178E-2,-4.3855116E-2,6.82454E-2,2.5854647E-1,-5.1318835E-2,1.886546E-2,2.4483791E-1,2.2950915E-1,-4.8868626E-2,2.2629493E-1,-5.890387E-2,2.177146E-1,2.7177033E-1,-6.379476E-2,2.208927E-1,1.4714847E-2,-6.1398726E-2,2.6957121E-1,1.8264295E-1,-6.1396617E-2,-1.8158302E-2,-4.4051353E-2,6.835411E-2],"categories":[],"categories_nodes":[],"categories_segments":[],"categories_sizes":[],"default_left":[0,0,0,0,0,0,0,0,0,0,0,0,0,0,0,0,0,0,0,0,0,0,0,0,0,0,0,0,0,0,0,0,0,0,0,0,0,0,0,0,0,0,0,0,0,0,0,0,0,0,0,0,0,0,0,0,0,0,0,0,0,0,0,0,0,0,0,0,0,0,0],"id":9,"left_children":[1,3,5,7,9,11,13,15,17,19,-1,21,23,25,27,29,31,33,35,-1,37,39,-1,41,43,-1,45,47,-1,-1,-1,49,-1,-1,-1,51,-1,53,-1,55,-1,-1,57,59,61,63,65,67,69,-1,-1,-1,-1,-1,-1,-1,-1,-1,-1,-1,-1,-1,-1,-1,-1,-1,-1,-1,-1,-1,-1],"loss_changes":[4.107124E3,3.2299054E2,4.684943E3,3.4878363E2,1.4063965E1,5.219741E2,2.4547578E2,1.3538517E1,5.136078E0,3.880065E1,0E0,6.055388E2,2.594248E2,7.5435345E2,1.1450195E-1,4.6472507E1,1.1733704E0,2.5399378E1,4.140045E0,0E0,1.4779837E1,8.748755E1,0E0,4.814185E0,2.3712695E2,0E0,8.035736E1,1.0365238E0,0E0,0E0,0E0,1.189487E0,0E0,0E0,0E0,1.9112999E1,0E0,3.1939926E0,0E0,1.3609756E2,0E0,0E0,1.4581058E1,2.5136719E1,3.1575745E2,1.075238E0,1.965857E1,2.4053192E-1,1.1987633E0,0E0,0E0,0E0,0E0,0E0,0E0,0E0,0E0,0E0,0E0,0E0,0E0,0E0,0E0,0E0,0E0,0E0,0E0,0E0,0E0,0E0,0E0],"parents":[2147483647,0,0,1,1,2,2,3,3,4,4,5,5,6,6,7,7,8,8,9,9,11,11,12,12,13,13,14,14,15,15,16,16,17,17,18,18,20,20,21,21,23,23,24,24,26,26,27,27,31,31,35,35,37,37,39,39,42,42,43,43,44,44,45,45,46,46,47,47,48,48],"right_children":[2,4,6,8,10,12,14,16,18,20,-1,22,24,26,28,30,32,34,36,-1,38,40,-1,42,44,-1,46,48,-1,-1,-1,50,-1,-1,-1,52,-1,54,-1,56,-1,-1,58,60,62,64,66,68,70,-1,-1,-1,-1,-1,-1,-1,-1,-1,-1,-1,-1,-1,-1,-1,-1,-1,-1,-1,-1,-1,-1],"split_conditions":[1.223E1,2.2E1,1.483E1,1.074E1,2.4E1,1.273E1,1.599E1,1.2E1,1.099E1,1.171E1,-6.610842E-2,5.3E1,2.3E1,5.2E1,1.629E1,9.99E0,7.43E0,1.4E1,1.2E1,-6.44908E-2,1.218E1,3.8E1,-6.581604E-2,2.1E1,1.435E1,-6.608275E-2,1E0,2E0,-6.614681E-2,-6.321172E-2,2.5854647E-1,1.5343189E0,-6.463443E-2,2.6250437E-1,-5.4880675E-2,1.158E1,2.7320993E-1,1.451549E0,-4.9862612E-2,3.1E1,2.7213466E-1,-6.422596E-2,1.306E1,3.1E1,4.1E1,3.2E3,1.528E1,2.45E1,1.1E1,-4.3855116E-2,6.82454E-2,2.5854647E-1,-5.1318835E-2,1.886546E-2,2.4483791E-1,2.2950915E-1,-4.8868626E-2,2.2629493E-1,-5.890387E-2,2.177146E-1,2.7177033E-1,-6.379476E-2,2.208927E-1,1.4714847E-2,-6.1398726E-2,2.6957121E-1,1.8264295E-1,-6.1396617E-2,-1.8158302E-2,-4.4051353E-2,6.835411E-2],"split_indices":[25,4,25,25,4,25,25,4,25,25,0,4,4,4,25,25,25,4,4,0,25,4,0,4,25,0,10,6,0,0,0,5,0,0,0,25,0,7,0,4,0,0,25,4,4,0,25,8,11,0,0,0,0,0,0,0,0,0,0,0,0,0,0,0,0,0,0,0,0,0,0],"split_type":[0,0,0,0,0,0,0,0,0,0,0,0,0,0,0,0,0,0,0,0,0,0,0,0,0,0,0,0,0,0,0,0,0,0,0,0,0,0,0,0,0,0,0,0,0,0,0,0,0,0,0,0,0,0,0,0,0,0,0,0,0,0,0,0,0,0,0,0,0,0,0],"sum_hessian":[7.933843E3,3.944762E3,3.9890806E3,2.2299524E2,3.7217666E3,2.2702634E3,1.7188173E3,1.3108444E2,9.191079E1,4.9788513E1,3.6719783E3,4.1654263E2,1.8537207E3,5.670046E2,1.1518127E3,2.7563667E1,1.0352078E2,1.3432438E1,7.8478355E1,3.6954655E1,1.2833861E1,2.4536305E2,1.711796E2,4.0820915E1,1.8128998E3,3.8015726E2,1.8684732E2,1.1337813E2,1.0384346E3,2.0334736E1,7.2289314E0,3.1109054E0,1.00409874E2,8.849217E0,4.58322E0,1.0670266E1,6.780809E1,9.814619E0,3.0192423E0,9.949109E1,1.4587196E2,3.1318932E1,9.501984E0,1.5421168E3,2.70783E2,1.3952389E1,1.7289494E2,1.10251366E2,3.126762E0,1.9136957E0,1.1972098E0,7.2289314E0,3.4413342E0,1.0950792E0,8.71954E0,6.3812637E1,3.5678455E1,2.355795E0,7.1461887E0,1.5216982E2,1.389947E3,6.842032E1,2.0236266E2,2.6401646E0,1.1312224E1,1.0503614E2,6.7858795E1,1.07485565E2,2.765794E0,1.9310439E0,1.1957182E0],"tree_param":{"num_deleted":"0","num_feature":"34","num_nodes":"71","size_leaf_vector":"1"}},{"base_weights":[-3.4451995E-2,-5.178367E-1,1.1041733E0,3.3958632E-2,-5.495025E-1,1.461063E0,-5.6969523E-1,-4.7280908E-1,1.9845614E0,-5.7426363E-1,-2.0127187E-2,1.7077893E0,1.0716527E0,-3.4983602E-1,-6.576474E-2,-5.6878227E-1,1.3244113E-1,2.1036458E0,8.9433974E-1,-5.744662E-1,7.435663E-3,2.8374165E-1,-3.1128532E-1,1.9544138E0,3.147989E-1,-2.84287E-1,2.14278E0,1.822646E-2,-5.4850746E-2,-3.969828E-3,-6.594307E-2,1.8763338E0,-5.1249087E-1,2.2206302E0,5.161596E-1,-5.3039093E-2,2.3840772E-1,-4.468121E-1,-6.612871E-2,2.8358403E-1,-6.586347E-2,1.3303927E0,2.1399584E0,-4.6091083E-1,2.7046904E-1,1.1702089E0,-5.702384E-1,2.6912326E-1,1.2178125E0,2.5262523E-1,9.940755E-2,-6.3326076E-2,-2.4657834E-3,4.889264E-2,2.6066813E-1,-4.7411013E-2,1.7750184E-1,-6.418185E-2,1.0359786E-1,2.8120762E-1,-6.490953E-2,2.7833802E-1,5.9199773E-2,8.713752E-2,2.5670397E-1,2.1138242E-1,-5.8233187E-2,-6.1195377E-2,1.9201426E-1,-6.596613E-2,1.5175602E-2,-4.1694954E-2,2.592744E-1],"categories":[],"categories_nodes":[],"categories_segments":[],"categories_sizes":[],"default_left":[0,0,0,0,0,0,0,0,0,0,0,0,0,0,0,0,0,0,0,0,0,0,0,0,0,0,0,0,0,0,0,0,0,0,0,0,0,0,0,0,0,0,0,0,0,0,0,0,0,0,0,0,0,0,0,0,0,0,0,0,0,0,0,0,0,0,0,0,0,0,0,0,0],"id":10,"left_children":[1,3,5,7,9,11,13,15,17,19,21,23,25,27,-1,29,31,33,35,37,-1,-1,39,41,43,45,47,-1,-1,-1,-1,49,51,53,55,-1,-1,57,-1,59,-1,61,63,65,-1,67,69,-1,71,-1,-1,-1,-1,-1,-1,-1,-1,-1,-1,-1,-1,-1,-1,-1,-1,-1,-1,-1,-1,-1,-1,-1,-1],"loss_changes":[4.2399917E3,9.450818E1,1.3723076E3,2.9198526E2,6.7026245E1,1.8000684E2,1.4419556E-2,1.3698124E1,6.0266266E0,6.6955566E-1,1.6709804E2,3.96823E2,1.0706293E3,5.264875E-1,0E0,5.0829315E-1,3.7974003E1,8.914444E0,1.3331852E1,2.4780273E-1,0E0,0E0,3.229322E1,1.1092993E2,2.7807797E2,1.36265E2,7.270886E1,0E0,0E0,0E0,0E0,1.0572166E0,4.560423E-1,3.2682037E0,5.429862E0,0E0,0E0,5.805164E0,0E0,1.1829285E2,0E0,2.0145044E2,9.564722E1,1.4351076E1,0E0,4.678421E1,7.707062E-1,0E0,1.2350131E2,0E0,0E0,0E0,0E0,0E0,0E0,0E0,0E0,0E0,0E0,0E0,0E0,0E0,0E0,0E0,0E0,0E0,0E0,0E0,0E0,0E0,0E0,0E0,0E0],"parents":[2147483647,0,0,1,1,2,2,3,3,4,4,5,5,6,6,7,7,8,8,9,9,10,10,11,11,12,12,13,13,15,15,16,16,17,17,18,18,19,19,22,22,23,23,24,24,25,25,26,26,31,31,32,32,33,33,34,34,37,37,39,39,41,41,42,42,43,43,45,45,46,46,48,48],"right_children":[2,4,6,8,10,12,14,16,18,20,22,24,26,28,-1,30,32,34,36,38,-1,-1,40,42,44,46,48,-1,-1,-1,-1,50,52,54,56,-1,-1,58,-1,60,-1,62,64,66,-1,68,70,-1,72,-1,-1,-1,-1,-1,-1,-1,-1,-1,-1,-1,-1,-1,-1,-1,-1,-1,-1,-1,-1,-1,-1,-1,-1],"split_conditions":[1.435E1,2.3E1,1.839E1,1.242E1,1.399E1,1.632E1,3E-1,1.183E1,1.392E1,3.5906794E3,3.1E1,5.6E1,5.2E1,3.78E4,-6.576474E-2,7.14E0,1.3E1,5.7E1,1.5E1,2.4E1,7.435663E-3,2.8374165E-1,1.417E1,1.483E1,1.599E1,1.64E1,1.793E1,1.822646E-2,-5.4850746E-2,-3.969828E-3,-6.594307E-2,4.7E1,3.04776E3,8.271E1,1.306E1,-5.3039093E-2,2.3840772E-1,1.348E1,-6.612871E-2,4.9E1,-6.586347E-2,4.1E1,3E1,1E0,2.7046904E-1,3.7E1,9.1352E2,2.6912326E-1,1.825E1,2.5262523E-1,9.940755E-2,-6.3326076E-2,-2.4657834E-3,4.889264E-2,2.6066813E-1,-4.7411013E-2,1.7750184E-1,-6.418185E-2,1.0359786E-1,2.8120762E-1,-6.490953E-2,2.7833802E-1,5.9199773E-2,8.713752E-2,2.5670397E-1,2.1138242E-1,-5.8233187E-2,-6.1195377E-2,1.9201426E-1,-6.596613E-2,1.5175602E-2,-4.1694954E-2,2.592744E-1],"split_indices":[25,4,25,25,25,25,27,25,25,20,4,4,4,3,0,25,4,21,4,4,0,0,25,25,25,25,25,0,0,0,0,21,22,2,25,0,0,25,0,4,0,4,4,10,0,4,2,0,25,0,0,0,0,0,0,0,0,0,0,0,0,0,0,0,0,0,0,0,0,0,0,0,0],"split_type":[0,0,0,0,0,0,0,0,0,0,0,0,0,0,0,0,0,0,0,0,0,0,0,0,0,0,0,0,0,0,0,0,0,0,0,0,0,0,0,0,0,0,0,0,0,0,0,0,0,0,0,0,0,0,0,0,0,0,0,0,0,0,0,0,0,0,0,0,0,0,0,0,0],"sum_hessian":[7.701519E3,5.406727E3,2.294792E3,2.9343216E2,5.113295E3,1.8916051E3,4.0318674E2,2.335209E2,5.9911255E1,4.8847305E3,2.2856444E2,1.1558717E3,7.357335E2,5.9644027E0,3.9722232E2,2.01612E2,3.1908913E1,5.3173573E1,6.7376842E0,4.883283E3,1.4472457E0,2.3158022E1,2.0540642E2,9.8166754E2,1.742041E2,3.2502243E2,4.107111E2,1.1454875E0,4.8189154E0,1.897573E0,1.9971442E2,8.099245E0,2.3809666E1,4.9152607E1,4.020966E0,3.4181468E0,3.3195376E0,3.4265568E1,4.8490176E3,6.2727634E1,1.4267879E2,2.2686125E2,7.548063E2,1.2674016E2,4.7463943E1,5.289236E1,2.7213007E2,3.369098E2,7.38013E1,5.2567677E0,2.8424776E0,2.1969545E1,1.8401217E0,1.5106086E0,4.7642E1,2.4272053E0,1.5937607E0,3.218835E1,2.077217E0,1.7140839E1,4.5586796E1,9.619145E1,1.306698E2,4.8264908E1,7.065414E2,1.7037888E0,1.2503637E2,1.1995859E1,4.08965E1,2.7091516E2,1.2149104E0,2.9507982E1,4.429332E1],"tree_param":{"num_deleted":"0","num_feature":"34","num_nodes":"73","size_leaf_vector":"1"}},{"base_weights":[-2.7815738E-1,-5.4906505E-1,1.1056472E0,-5.654426E-1,-1.9422723E-1,1.273311E0,-5.36593E-1,-3.821078E-1,-5.7473093E-1,2.0262814E0,-3.781796E-1,1.5705553E0,1.0237776E0,-2.8062868E-1,-5.611159E-1,-5.5597055E-1,1.8702824E0,-6.608599E-2,8.9793827E-4,-2.2799899E-1,2.8373215E-1,-5.094409E-2,-6.575783E-2,2.1485312E0,-5.6177574E-1,-5.062501E-1,1.985259E0,-4.307182E-1,6.4005256E-2,7.3216152E-3,-6.559359E-2,-5.703997E-1,1.8818377E-1,2.2603633E0,1.0592988E0,2.2901777E-2,-4.7465105E-2,-4.645398E-1,1.3756518E0,1.1502173E0,2.296121E0,-6.559357E-2,-2.901019E-1,-9.281186E-2,-5.6829655E-1,1.0367525E0,2.2094896E0,1.4883985E-2,-5.9330016E-2,-6.599249E-2,-4.6703047E-3,1.7372957E-1,-5.250124E-2,6.51805E-2,2.7382034E-1,-5.2790835E-2,2.418033E-1,6.300468E-2,-5.911488E-2,2.7631864E-1,2.7795004E-2,7.718669E-2,3.4086457E-1,-4.701098E-2,2.660426E-1,-5.1084086E-2,1.7196996E-2,-3.9134458E-2,2.9328575E-2,-6.5885745E-2,1.8237684E-2,2.585358E-1,-6.422165E-2,2.7079287E-1,1.461343E-1],"categories":[],"categories_nodes":[],"categories_segments":[],"categories_sizes":[],"default_left":[0,0,0,0,0,0,0,0,0,0,0,0,0,0,0,0,0,0,0,0,0,0,0,0,1,0,0,0,0,0,0,0,0,0,0,0,0,0,0,0,0,0,0,0,0,0,0,0,0,0,0,0,0,0,0,0,0,0,0,0,0,0,0,0,0,0,0,0,0,0,0,0,0,0,0],"id":11,"left_children":[1,3,5,7,9,11,13,15,17,19,21,23,25,27,29,31,33,-1,-1,35,-1,37,-1,39,41,43,45,47,-1,-1,-1,49,51,53,55,-1,-1,57,59,61,63,-1,65,67,69,71,73,-1,-1,-1,-1,-1,-1,-1,-1,-1,-1,-1,-1,-1,-1,-1,-1,-1,-1,-1,-1,-1,-1,-1,-1,-1,-1,-1,-1],"loss_changes":[2.8128955E3,3.6352417E1,3.3894763E2,9.99231E0,1.1445742E2,8.1094604E1,5.613098E-1,1.1545006E2,5.8081055E-1,2.193663E1,1.633133E1,6.260314E2,8.9693195E2,1.7496125E0,6.5098953E-1,3.0278473E0,4.3010483E0,0E0,0E0,4.3239477E-1,0E0,5.7895935E1,0E0,5.61593E1,9.6157074E-2,5.9966087E0,7.729578E1,5.812111E-1,0E0,0E0,0E0,4.9893188E-1,5.7465878E0,1.4124298E0,1.4850239E1,0E0,0E0,4.107233E0,2.513869E1,4.441458E1,1.8082764E1,0E0,4.3745977E-1,2.8413107E0,8.1552887E-1,1.4329001E2,3.8406372E1,0E0,0E0,0E0,0E0,0E0,0E0,0E0,0E0,0E0,0E0,0E0,0E0,0E0,0E0,0E0,0E0,0E0,0E0,0E0,0E0,0E0,0E0,0E0,0E0,0E0,0E0,0E0,0E0],"parents":[2147483647,0,0,1,1,2,2,3,3,4,4,5,5,6,6,7,7,8,8,9,9,10,10,11,11,12,12,13,13,14,14,15,15,16,16,19,19,21,21,23,23,24,24,25,25,26,26,27,27,31,31,32,32,33,33,34,34,37,37,38,38,39,39,40,40,42,42,43,43,44,44,45,45,46,46],"right_children":[2,4,6,8,10,12,14,16,18,20,22,24,26,28,30,32,34,-1,-1,36,-1,38,-1,40,42,44,46,48,-1,-1,-1,50,52,54,56,-1,-1,58,60,62,64,-1,66,68,70,72,74,-1,-1,-1,-1,-1,-1,-1,-1,-1,-1,-1,-1,-1,-1,-1,-1,-1,-1,-1,-1,-1,-1,-1,-1,-1,-1,-1,-1],"split_conditions":[1.632E1,1.565E1,2.053E1,2.3E1,3.1E1,5.2E1,5.76E0,1.392E1,1.1020965E2,2E1,4.9E1,1.799E1,1.793E1,5.64E0,3.2E3,1.372E1,2.1E1,-6.608599E-2,8.9793827E-4,8.247E3,2.8373215E-1,4.6E1,-6.575783E-2,1.64E1,9.93E1,5.3E1,1.839E1,1.5350877E0,6.4005256E-2,7.3216152E-3,-6.559359E-2,4.22367E3,1.3E1,1E1,1.465E1,2.2901777E-2,-4.7465105E-2,3.2E1,4.8E1,4.6E1,2.4E1,-6.559357E-2,4.8E1,1.695E1,4E0,1.825E1,2.025E1,1.4883985E-2,-5.9330016E-2,-6.599249E-2,-4.6703047E-3,1.7372957E-1,-5.250124E-2,6.51805E-2,2.7382034E-1,-5.2790835E-2,2.418033E-1,6.300468E-2,-5.911488E-2,2.7631864E-1,2.7795004E-2,7.718669E-2,3.4086457E-1,-4.701098E-2,2.660426E-1,-5.1084086E-2,1.7196996E-2,-3.9134458E-2,2.9328575E-2,-6.5885745E-2,1.8237684E-2,2.585358E-1,-6.422165E-2,2.7079287E-1,1.461343E-1],"split_indices":[25,25,25,4,4,4,8,25,18,4,4,25,25,8,0,25,4,0,0,13,0,4,0,25,27,4,25,7,0,0,0,17,4,4,25,0,0,4,4,4,4,0,4,25,10,25,25,0,0,0,0,0,0,0,0,0,0,0,0,0,0,0,0,0,0,0,0,0,0,0,0,0,0,0,0],"split_type":[0,0,0,0,0,0,0,0,0,0,0,0,0,0,0,0,0,0,0,0,0,0,0,0,0,0,0,0,0,0,0,0,0,0,0,0,0,0,0,0,0,0,0,0,0,0,0,0,0,0,0,0,0,0,0,0,0,0,0,0,0,0,0,0,0,0,0,0,0,0,0,0,0,0,0],"sum_hessian":[7.500771E3,6.2732573E3,1.2275137E3,5.995922E3,2.7733557E2,1.1140044E3,1.13509224E2,2.9115594E2,5.7047656E3,2.045124E1,2.568843E2,5.059833E2,6.080211E2,1.10120125E1,1.02497215E2,2.709912E2,2.0164734E1,5.7030815E3,1.6841867E0,3.431935E0,1.7019306E1,9.6039986E1,1.6084433E2,3.9807584E2,1.0790747E2,2.3482005E2,3.7320108E2,9.750193E0,1.2618196E0,1.4504433E0,1.0104677E2,2.660657E2,4.9255314E0,1.2408901E1,7.755832E0,1.0133303E0,2.4186049E0,7.497714E1,2.1062845E1,5.2403816E1,3.45672E2,1.0343943E2,4.46804E0,3.0967606E1,2.0385245E2,7.243229E1,3.007688E2,1.2216797E0,8.528513E0,2.641416E2,1.9241035E0,1.1737969E0,3.7517343E0,1.2114345E0,1.1197467E1,3.3884597E0,4.3673725E0,3.0399537E0,7.193719E1,1.0458994E1,1.0603851E1,4.2550625E1,9.853189E0,2.1759443E0,3.4349606E2,3.299533E0,1.168507E0,1.8104475E1,1.28631315E1,2.0270721E2,1.1452383E0,4.092477E1,3.1507519E1,2.589054E2,4.186338E1],"tree_param":{"num_deleted":"0","num_feature":"34","num_nodes":"75","size_leaf_vector":"1"}},{"base_weights":[-4.637169E-1,-5.679242E-1,7.681722E-1,-5.713809E-1,-2.3805183E-1,1.7144059E0,3.860289E-1,-4.9224198E-1,-5.74252E-1,2.227526E-1,-3.401679E-1,2.258463E0,-6.419266E-2,-5.3253603E-1,1.6853572E0,-5.695515E-1,1.8792932E0,-6.6186294E-2,-5.077505E-1,6.424414E-2,-6.474417E-2,5.7219607E-1,2.2920332E0,-2.3223925E-1,-6.589145E-2,1.9409742E0,7.8917235E-1,-6.595059E-2,-5.419606E-3,2.0212073E0,6.7174196E-2,2.327797E-1,-6.576178E-2,-4.521279E-1,1.8246052E0,1.4798665E-1,-4.0510308E-2,6.531233E-2,2.3037546E0,2.0352261E-1,-4.13301E-1,1.0407671E0,2.6808116E-1,-1.5203696E-1,1.3333787E0,2.5315264E-1,7.008247E-2,-6.268706E-2,3.2896955E-2,2.4122924E-1,5.8203395E-2,2.708176E-1,1.9462536E-1,-5.746033E-2,2.093048E-1,5.17139E-2,-5.7357576E-2,2.5076059E-1,-6.2623985E-2,7.63474E-2,-3.605603E-2,1.8653207E-1,8.541692E-2],"categories":[],"categories_nodes":[],"categories_segments":[],"categories_sizes":[],"default_left":[0,0,0,0,0,0,0,0,0,0,0,0,0,0,0,0,0,0,0,0,0,0,0,0,0,0,0,0,0,0,0,0,0,0,0,0,0,0,0,0,0,0,0,0,0,0,0,0,0,0,0,0,0,0,0,0,0,0,0,0,0,0,0],"id":12,"left_children":[1,3,5,7,9,11,13,15,17,-1,19,21,-1,23,25,27,29,-1,31,33,-1,35,37,39,-1,41,43,-1,-1,45,-1,-1,-1,47,49,-1,-1,-1,51,53,55,57,-1,59,61,-1,-1,-1,-1,-1,-1,-1,-1,-1,-1,-1,-1,-1,-1,-1,-1,-1,-1],"loss_changes":[9.4447363E2,7.5959473E0,2.068898E2,1.2416992E0,1.6664309E1,2.0508475E2,4.9042377E2,4.542304E1,3.6376953E-1,0E0,6.3197536E0,6.2284546E0,0E0,2.8111954E0,3.743701E1,4.855652E-1,2.6506042E-1,0E0,2.6166302E1,2.414957E1,0E0,3.054203E0,1.3232422E0,2.4855275E0,0E0,4.3937378E1,2.0402998E1,0E0,0E0,3.6596298E-1,0E0,0E0,0E0,1.5765257E0,1.110733E0,0E0,0E0,0E0,1.23168945E-1,1.183583E1,1.8389513E0,7.658905E1,0E0,2.2328072E0,3.0795784E0,0E0,0E0,0E0,0E0,0E0,0E0,0E0,0E0,0E0,0E0,0E0,0E0,0E0,0E0,0E0,0E0,0E0,0E0],"parents":[2147483647,0,0,1,1,2,2,3,3,4,4,5,5,6,6,7,7,8,8,10,10,11,11,13,13,14,14,15,15,16,16,18,18,19,19,21,21,22,22,23,23,25,25,26,26,29,29,33,33,34,34,38,38,39,39,40,40,41,41,43,43,44,44],"right_children":[2,4,6,8,10,12,14,16,18,-1,20,22,-1,24,26,28,30,-1,32,34,-1,36,38,40,-1,42,44,-1,-1,46,-1,-1,-1,48,50,-1,-1,-1,52,54,56,58,-1,60,62,-1,-1,-1,-1,-1,-1,-1,-1,-1,-1,-1,-1,-1,-1,-1,-1,-1,-1],"split_conditions":[1.799E1,1.758E1,5.2E1,2.1E1,3.2E1,1.991E1,2.025E1,1.521E1,1.714E1,2.227526E-1,4.9E1,3E1,-6.419266E-2,5.3E1,2.206E1,1.491E1,1.6541524E0,-6.6186294E-2,3.1E1,4.6E1,-6.474417E-2,3E0,4.5E1,1.839E1,-6.589145E-2,2.053E1,5.7E1,-6.595059E-2,-5.419606E-3,2.45E1,6.7174196E-2,2.327797E-1,-6.576178E-2,4.5E1,9.44E1,1.4798665E-1,-4.0510308E-2,6.531233E-2,1.942E1,1.825E1,1.3639113E0,5.7E1,2.6808116E-1,6.6E1,1.02E5,2.5315264E-1,7.008247E-2,-6.268706E-2,3.2896955E-2,2.4122924E-1,5.8203395E-2,2.708176E-1,1.9462536E-1,-5.746033E-2,2.093048E-1,5.17139E-2,-5.7357576E-2,2.5076059E-1,-6.2623985E-2,7.63474E-2,-3.605603E-2,1.8653207E-1,8.541692E-2],"split_indices":[25,25,4,4,4,25,25,25,25,0,4,4,0,4,25,25,7,0,4,4,0,26,23,25,0,25,4,0,0,8,0,0,0,4,27,0,0,0,25,25,5,4,0,21,3,0,0,0,0,0,0,0,0,0,0,0,0,0,0,0,0,0,0],"split_type":[0,0,0,0,0,0,0,0,0,0,0,0,0,0,0,0,0,0,0,0,0,0,0,0,0,0,0,0,0,0,0,0,0,0,0,0,0,0,0,0,0,0,0,0,0,0,0,0,0,0,0,0,0,0,0,0,0,0,0,0,0,0,0],"sum_hessian":[7.352927E3,6.7799404E3,5.729862E2,6.7089067E3,7.103371E1,1.6383194E2,4.0915424E2,2.4091187E2,6.467995E3,2.3784354E0,6.8655266E1,1.3219446E2,3.1637486E1,2.4004424E2,1.6911E2,2.3404218E2,6.8696895E0,6.3155186E3,1.524764E2,2.4659605E1,4.3995663E1,2.9325964E0,1.2926186E2,2.943622E1,2.1060802E2,1.3067268E2,3.8437325E1,2.3208914E2,1.9530392E0,5.6857057E0,1.1839842E0,3.0220602E0,1.4945433E2,1.964132E1,5.0182858E0,1.4323269E0,1.5002695E0,1.2071059E0,1.2805475E2,8.604262E0,2.0831957E1,4.0689682E1,8.9982994E1,1.4346155E1,2.4091167E1,4.542826E0,1.1428795E0,1.7671722E1,1.9695969E0,3.6648684E0,1.3534176E0,1.1534082E2,1.2713926E1,6.47785E0,2.1264129E0,1.4970852E0,1.9334871E1,2.3446156E1,1.7243526E1,1.8573424E0,1.2488813E1,1.4993513E1,9.097655E0],"tree_param":{"num_deleted":"0","num_feature":"34","num_nodes":"63","size_leaf_vector":"1"}},{"base_weights":[-5.4169846E-1,-5.72595E-1,5.5092543E-1,-5.743936E-1,-3.1605238E-1,2.6992673E-1,9.993338E-3,-6.613938E-2,-4.9801454E-1,1.0924562E0,-6.473985E-2,-5.6227666E-1,1.5230926E0,2.0975475E-1,-6.54948E-2,1.4165372E0,-2.4972176E-3,-6.561627E-2,-2.3109977E-1,2.1175046E0,9.6677923E-1,3.7375875E-3,2.1462052E-1,1.712007E-2,-4.683389E-2,2.1917753E0,6.332822E-2,-1.6909176E-1,1.1198745E0,7.011957E-2,2.5979656E-1,2.0963363E-2,-4.3212485E-2,1.5634309E-1,2.5059573E-2],"categories":[],"categories_nodes":[],"categories_segments":[],"categories_sizes":[],"default_left":[0,0,0,0,0,0,0,0,0,0,0,1,0,0,0,0,0,0,0,0,0,0,0,0,0,0,0,0,0,0,0,0,0,0,0],"id":13,"left_children":[1,3,5,7,9,-1,11,-1,13,15,-1,17,19,-1,-1,21,-1,-1,23,25,27,-1,-1,-1,-1,29,-1,31,33,-1,-1,-1,-1,-1,-1],"loss_changes":[2.4658179E2,3.092041E0,1.9550423E2,2.3803711E-1,1.8583355E1,0E0,1.35587E2,0E0,1.7078712E1,2.9357653E0,0E0,1.8950272E-1,1.2161613E1,0E0,0E0,3.834776E0,0E0,0E0,3.6470944E-1,1.1117401E0,4.3690796E0,0E0,0E0,0E0,0E0,6.4056396E-1,0E0,3.3923185E-1,4.3204613E0,0E0,0E0,0E0,0E0,0E0,0E0],"parents":[2147483647,0,0,1,1,2,2,3,3,4,4,6,6,8,8,9,9,11,11,12,12,15,15,18,18,19,19,20,20,25,25,27,27,28,28],"right_children":[2,4,6,8,10,-1,12,-1,14,16,-1,18,20,-1,-1,22,-1,-1,24,26,28,-1,-1,-1,-1,30,-1,32,34,-1,-1,-1,-1,-1,-1],"split_conditions":[1.991E1,1.942E1,5.2E1,1.879E1,4.9E1,2.6992673E-1,2.206E1,-6.613938E-2,3.1E1,2.6118314E4,-6.473985E-2,9.93E1,5.7E1,2.0975475E-1,-6.54948E-2,6.9832725E3,-2.4972176E-3,-6.561627E-2,8.42E0,1.38875E3,3.4298E2,3.7375875E-3,2.1462052E-1,1.712007E-2,-4.683389E-2,2.93704E3,6.332822E-2,8.6E0,4.3322543E4,7.011957E-2,2.5979656E-1,2.0963363E-2,-4.3212485E-2,1.5634309E-1,2.5059573E-2],"split_indices":[25,25,4,25,4,0,25,0,4,15,0,27,4,0,0,15,0,0,8,19,2,0,0,0,0,15,0,8,15,0,0,0,0,0,0],"split_type":[0,0,0,0,0,0,0,0,0,0,0,0,0,0,0,0,0,0,0,0,0,0,0,0,0,0,0,0,0,0,0,0,0,0,0],"sum_hessian":[7.293986E3,7.0938657E3,2.0011992E2,7.043248E3,5.061749E1,4.5524113E1,1.5459581E2,6.948004E3,9.524434E1,7.0451865E0,4.35723E1,1.1262735E2,4.196845E1,2.1217458E0,9.31226E1,5.2474833E0,1.7977033E0,1.09090195E2,3.53716E0,1.893277E1,2.303568E1,1.5519544E0,3.6955287E0,1.1702504E0,2.3669095E0,1.7694801E1,1.2379683E0,2.7236211E0,2.031206E1,1.1433018E0,1.65515E1,1.0528318E0,1.6707895E0,1.5638738E1,4.6733217E0],"tree_param":{"num_deleted":"0","num_feature":"34","num_nodes":"35","size_leaf_vector":"1"}},{"base_weights":[3.617681E-1,1.7833319E0,-5.402807E-1,1.8085202E0,1.0083486E0,4.61085E-1,-6.542752E-2,2.1072054E-1,1.5338737E0,1.4963458E0,-6.2870584E-2,1.3087285E0,-6.442256E-2,6.1989084E-2,1.8066568E0,-6.0088154E-2,2.1056125E-1,-6.1854362E-2,2.1043146E-1,1.4081421E0,-6.326156E-2,-4.6675272E-2,2.1073277E-1,-4.4511892E-2,2.032106E-1],"categories":[],"categories_nodes":[],"categories_segments":[],"categories_sizes":[],"default_left":[0,0,0,0,0,0,0,0,0,0,0,0,0,0,0,0,0,0,0,0,0,0,0,0,0],"id":14,"left_children":[1,3,5,7,9,11,-1,-1,13,15,-1,17,-1,19,21,-1,-1,-1,-1,23,-1,-1,-1,-1,-1],"loss_changes":[1.0597018E4,6.0799805E1,1.4655994E2,1.8180664E1,7.9179276E1,1.2399994E2,0E0,0E0,1.0489374E2,5.4357758E1,0E0,7.626083E1,0E0,3.5334076E1,1.3718262E1,0E0,0E0,0E0,0E0,9.330259E0,0E0,0E0,0E0,0E0,0E0],"parents":[2147483647,0,0,1,1,2,2,3,3,4,4,5,5,8,8,9,9,11,11,13,13,14,14,19,19],"right_children":[2,4,6,8,10,12,-1,-1,14,16,-1,18,-1,20,22,-1,-1,-1,-1,24,-1,-1,-1,-1,-1],"split_conditions":[9.62E0,9.07E0,9.88E0,8.63E0,3.2E1,3.2E1,-6.542752E-2,2.1072054E-1,8.9E0,1.9E1,-6.2870584E-2,2E1,-6.442256E-2,2.2E1,1.3E1,-6.0088154E-2,2.1056125E-1,-6.1854362E-2,2.1043146E-1,1.2E1,-6.326156E-2,-4.6675272E-2,2.1073277E-1,-4.4511892E-2,2.032106E-1],"split_indices":[25,25,25,25,4,4,0,0,25,4,0,4,0,4,4,0,0,0,0,4,0,0,0,0,0],"split_type":[0,0,0,0,0,0,0,0,0,0,0,0,0,0,0,0,0,0,0,0,0,0,0,0,0],"sum_hessian":[8.262189E3,3.2070825E3,5.0551074E3,3.1048364E3,1.0224599E2,1.4135918E2,4.913748E3,2.8443062E3,2.6053027E2,7.785538E1,2.4390614E1,7.710076E1,6.4258415E1,4.0926434E1,2.1960385E2,1.1011043E1,6.684433E1,1.6980402E1,6.012036E1,1.2389414E1,2.853702E1,2.4370828E0,2.1716676E2,2.0549002E0,1.0334514E1],"tree_param":{"num_deleted":"0","num_feature":"34","num_nodes":"25","size_leaf_vector":"1"}},{"base_weights":[5.0426686E-1,1.0285395E0,-6.5428086E-2,-4.7701934E-1,1.6731766E0,-5.654606E-1,2.4051343E-1,1.0066292E0,1.7703803E0,-6.507401E-2,1.569562E-2,1.6110867E0,-4.2956388E-1,1.1542714E0,-6.410111E-2,1.8174543E0,1.0967587E0,3.4158185E-1,2.0959005E-1,1.9869362E-1,-6.4886145E-2,4.703186E-1,1.368262E0,2.109136E-1,1.5683326E0,-6.4522885E-2,2.1059126E-1,1.8531896E-1,-5.6226384E-2,2.0964168E-1,-6.444883E-2,8.015028E-2,2.009836E-1,-6.2746964E-2,2.0911106E-1],"categories":[],"categories_nodes":[],"categories_segments":[],"categories_sizes":[],"default_left":[0,0,0,0,0,0,0,0,0,0,0,0,0,0,0,0,0,0,0,0,0,0,0,0,0,0,0,0,0,0,0,0,0,0,0],"id":15,"left_children":[1,3,-1,5,7,9,11,13,15,-1,-1,17,19,21,-1,23,25,27,-1,-1,-1,29,31,-1,33,-1,-1,-1,-1,-1,-1,-1,-1,-1,-1],"loss_changes":[4.810061E3,5.573676E3,0E0,1.09430145E2,2.5872656E2,7.664795E-1,1.7490102E2,1.1936383E2,1.0923828E2,0E0,0E0,1.6214035E1,3.8295982E1,6.8151306E1,0E0,1.1290039E1,2.8341525E2,1.1534759E1,0E0,0E0,0E0,1.5945108E2,8.9976135E1,0E0,1.1780615E2,0E0,0E0,0E0,0E0,0E0,0E0,0E0,0E0,0E0,0E0],"parents":[2147483647,0,0,1,1,3,3,4,4,5,5,6,6,7,7,8,8,11,11,12,12,13,13,15,15,16,16,17,17,21,21,22,22,24,24],"right_children":[2,4,-1,6,8,10,12,14,16,-1,-1,18,20,22,-1,24,26,28,-1,-1,-1,30,32,-1,34,-1,-1,-1,-1,-1,-1,-1,-1,-1,-1],"split_conditions":[1.273E1,9.25E0,-6.5428086E-2,8.63E0,3.1E1,3E0,8.9E0,1.223E1,1.261E1,-6.507401E-2,1.569562E-2,2.2E1,1.4E1,9.88E0,-6.410111E-2,1.223E1,5.3E1,1.2E1,2.0959005E-1,1.9869362E-1,-6.4886145E-2,2E1,2.1E1,2.109136E-1,1.242E1,-6.4522885E-2,2.1059126E-1,1.8531896E-1,-5.6226384E-2,2.0964168E-1,-6.444883E-2,8.015028E-2,2.009836E-1,-6.2746964E-2,2.0911106E-1],"split_indices":[25,25,0,25,4,9,25,25,25,0,0,4,4,25,0,25,4,4,0,0,0,4,4,0,25,0,0,0,0,0,0,0,0,0,0],"split_type":[0,0,0,0,0,0,0,0,0,0,0,0,0,0,0,0,0,0,0,0,0,0,0,0,0,0,0,0,0,0,0,0,0,0,0],"sum_hessian":[8.544933E3,5.741044E3,2.8038882E3,1.7212651E3,4.019779E3,1.5325756E3,1.886895E2,5.1304785E2,3.5067312E3,1.5313727E3,1.2028716E0,6.149781E1,1.2719169E2,4.6903995E2,4.4007862E1,3.2760928E3,2.3063835E2,9.1813345E0,5.2316475E1,6.788093E0,1.20403595E2,1.12539955E2,3.565E2,3.0567856E3,2.1930725E2,7.092676E1,1.597116E2,3.2578292E0,5.923505E0,4.8328083E1,6.4211876E1,1.2995538E2,2.2654462E2,2.3131704E1,1.9617554E2],"tree_param":{"num_deleted":"0","num_feature":"34","num_nodes":"35","size_leaf_vector":"1"}},{"base_weights":[2.0746024E-1,-4.8798445E-1,8.1204903E-1,5.960994E-1,-5.607671E-1,1.5079745E0,-2.9288626E-1,-3.6973748E-1,1.7318636E0,-2.746245E-2,-6.532897E-2,7.558717E-1,1.6605978E0,2.1568781E-1,-5.624759E-1,2.2346E-1,-5.370891E-1,1.7865517E0,8.74814E-1,-6.3661404E-2,1.2279414E0,1.5029583E0,-6.502667E-2,-3.5989803E-1,1.697539E0,-6.535062E-2,1.5155051E0,-5.001356E-1,-6.538502E-2,-6.2400196E-2,2.0970497E-1,5.888871E-2,-6.397222E-2,2.063994E-1,6.506642E-2,-9.1729335E-2,2.038183E-1,1.6544394E0,-4.874869E-2,9.622889E-1,2.1068129E-1,-6.3355744E-2,2.2117886E-1,1.788866E0,1.0162311E0,-3.9858294E-1,1.6446884E0,-5.1692784E-1,5.396008E-2,-4.290203E-2,6.751894E-2,7.645726E-2,-5.2116755E-2,1.8952014E-2,2.0548095E-1,1.8161619E-1,-4.7284763E-2,1.8980837E-1,-5.7949062E-2,1.5418988E-1,2.1138315E-1,-6.7803636E-2,2.0525733E-1,1.4285036E-2,-6.059464E-2,1.4695512E-1,2.1550745E-1,-6.03768E-2,-1.6961625E-2,6.888855E-2,-4.3493226E-2],"categories":[],"categories_nodes":[],"categories_segments":[],"categories_sizes":[],"default_left":[0,0,0,0,0,0,0,0,0,0,0,0,0,0,0,0,0,0,0,0,0,0,0,0,0,0,0,0,0,0,0,0,0,0,0,0,0,0,0,0,0,0,0,0,0,0,0,0,0,0,0,0,0,0,0,0,0,0,0,0,0,0,0,0,0,0,0,0,0,0,0],"id":16,"left_children":[1,3,5,7,9,11,13,15,17,19,-1,21,23,25,27,29,31,33,35,-1,37,39,-1,41,43,-1,45,47,-1,-1,-1,49,-1,-1,-1,51,-1,53,-1,55,-1,-1,57,59,61,63,65,67,69,-1,-1,-1,-1,-1,-1,-1,-1,-1,-1,-1,-1,-1,-1,-1,-1,-1,-1,-1,-1,-1,-1],"loss_changes":[3.3520457E3,2.9288782E2,3.279746E3,2.5706085E2,1.3979492E1,2.9911963E2,2.261913E2,1.2742704E1,3.4804993E0,3.3435402E1,0E0,4.3850293E2,1.6291504E2,5.838678E2,1.4086914E-1,3.6178444E1,1.1844006E0,8.251953E-2,7.4676385E0,0E0,1.1238358E1,4.878534E1,0E0,4.5526E0,1.3106494E2,0E0,5.394098E1,1.0295162E0,0E0,0E0,0E0,1.1427655E0,0E0,0E0,0E0,1.6711586E0,0E0,2.1024208E0,0E0,9.35591E1,0E0,0E0,1.1812456E1,3.966455E1,3.1584207E2,1.0353522E0,1.4632324E1,2.435093E-1,1.1867203E0,0E0,0E0,0E0,0E0,0E0,0E0,0E0,0E0,0E0,0E0,0E0,0E0,0E0,0E0,0E0,0E0,0E0,0E0,0E0,0E0,0E0,0E0],"parents":[2147483647,0,0,1,1,2,2,3,3,4,4,5,5,6,6,7,7,8,8,9,9,11,11,12,12,13,13,14,14,15,15,16,16,17,17,18,18,20,20,21,21,23,23,24,24,26,26,27,27,31,31,35,35,37,37,39,39,42,42,43,43,44,44,45,45,46,46,47,47,48,48],"right_children":[2,4,6,8,10,12,14,16,18,20,-1,22,24,26,28,30,32,34,36,-1,38,40,-1,42,44,-1,46,48,-1,-1,-1,50,-1,-1,-1,52,-1,54,-1,56,-1,-1,58,60,62,64,66,68,70,-1,-1,-1,-1,-1,-1,-1,-1,-1,-1,-1,-1,-1,-1,-1,-1,-1,-1,-1,-1,-1,-1],"split_conditions":[1.223E1,2.2E1,1.483E1,1.074E1,2.4E1,1.273E1,1.599E1,1.2E1,2.1E1,1.171E1,-6.532897E-2,5.3E1,2.3E1,5.2E1,1.629E1,9.99E0,7.43E0,2.1111112E0,1.148E1,-6.3661404E-2,1.218E1,3.8E1,-6.502667E-2,2.1E1,1.446E1,-6.535062E-2,1E0,2E0,-6.538502E-2,-6.2400196E-2,2.0970497E-1,3.966E3,-6.397222E-2,2.063994E-1,6.506642E-2,5.33E0,2.038183E-1,1.451549E0,-4.874869E-2,3.1E1,2.1068129E-1,-6.3355744E-2,1.306E1,3.1E1,1.465E1,3.2E3,5.6E1,2.45E1,2.0588236E0,-4.290203E-2,6.751894E-2,7.645726E-2,-5.2116755E-2,1.8952014E-2,2.0548095E-1,1.8161619E-1,-4.7284763E-2,1.8980837E-1,-5.7949062E-2,1.5418988E-1,2.1138315E-1,-6.7803636E-2,2.0525733E-1,1.4285036E-2,-6.059464E-2,1.4695512E-1,2.1550745E-1,-6.03768E-2,-1.6961625E-2,6.888855E-2,-4.3493226E-2],"split_indices":[25,4,25,25,4,25,25,4,4,25,0,4,4,4,25,25,25,6,25,0,25,4,0,4,25,0,10,6,0,0,0,13,0,0,0,8,0,7,0,4,0,0,25,4,25,0,4,8,6,0,0,0,0,0,0,0,0,0,0,0,0,0,0,0,0,0,0,0,0,0,0],"split_type":[0,0,0,0,0,0,0,0,0,0,0,0,0,0,0,0,0,0,0,0,0,0,0,0,0,0,0,0,0,0,0,0,0,0,0,0,0,0,0,0,0,0,0,0,0,0,0,0,0,0,0,0,0,0,0,0,0,0,0,0,0,0,0,0,0,0,0,0,0,0,0],"sum_hessian":[7.9704233E3,3.7067854E3,4.2636377E3,2.3275499E2,3.4740303E3,2.6157717E3,1.647866E3,1.26151825E2,1.06603165E2,4.8570644E1,3.4254597E3,4.422733E2,2.1734985E3,5.7096155E2,1.0769044E3,2.7684742E1,9.846708E1,9.918938E1,7.4137874E0,3.4616104E1,1.3954538E1,2.8245975E2,1.5981354E2,3.886812E1,2.1346304E3,3.5646478E2,2.1449675E2,1.0664917E2,9.7025525E2,1.9169453E1,8.515288E0,3.0442452E0,9.542284E1,9.7996735E1,1.1926422E0,4.0036845E0,3.4101026E0,1.109E1,2.8645377E0,1.0850749E2,1.7395226E2,2.928183E1,9.586289E0,1.8808792E3,2.5375133E2,1.342944E1,2.010673E2,1.0357727E2,3.0718937E0,1.8364654E0,1.2077799E0,1.0232058E0,2.9804788E0,1.0933483E0,9.996653E0,7.4747345E1,3.3760143E1,2.7963293E0,6.78996E0,1.9191605E2,1.688963E3,8.226174E1,1.7148958E2,2.656783E0,1.0772656E1,8.010399E1,1.2096332E2,1.0088553E2,2.6917484E0,1.1876329E0,1.8842608E0],"tree_param":{"num_deleted":"0","num_feature":"34","num_nodes":"71","size_leaf_vector":"1"}},{"base_weights":[-3.1668317E-2,-5.086002E-1,9.3904716E-1,-8.7797105E-2,-5.5113363E-1,1.207006E0,-5.627528E-1,-4.8146418E-1,9.118349E-1,-6.534964E-2,-1.801399E-1,1.3816307E0,9.1559047E-1,-3.3550796E-1,-6.498311E-2,-1.4780448E-1,-5.609265E-1,1.6053718E0,1.8879655E-1,5.261448E-1,-6.508982E-2,1.6401608E0,6.0806835E-1,-2.7175868E-1,1.6841348E0,-5.389502E-2,2.0882143E-2,-6.426553E-2,1.7021008E0,1.9815471E-2,-6.48999E-2,1.6588593E0,4.543028E-1,-4.580658E-1,2.2493157E-1,2.3355386E-1,-6.4092234E-2,-4.2760247E-1,1.6722409E0,-6.602347E-2,1.4191068E0,9.900271E-1,-5.6327826E-1,1.813193E0,1.0288994E0,2.075839E-1,5.7821184E-2,1.0424309E-2,1.9417743E-1,-4.436887E-2,1.5581389E-1,1.1256936E-2,-6.397907E-2,-6.259459E-2,1.6778963E-2,8.42002E-2,1.9820392E-1,2.0687403E-1,8.529584E-2,1.6406345E-1,-6.731197E-2,-6.519195E-2,1.5520823E-2,-4.2343646E-2,2.0926847E-1,-4.0041015E-2,2.0221245E-1],"categories":[],"categories_nodes":[],"categories_segments":[],"categories_sizes":[],"default_left":[0,0,0,0,0,0,0,0,0,0,0,0,0,0,0,0,0,0,0,0,0,0,0,0,0,0,0,0,0,0,0,0,0,0,0,0,0,0,0,0,0,0,0,0,0,0,0,0,0,0,0,0,0,0,0,0,0,0,0,0,0,0,0,0,0,0,0],"id":17,"left_children":[1,3,5,7,9,11,13,15,17,-1,19,21,23,25,-1,27,29,31,33,35,-1,37,39,41,43,-1,-1,-1,45,-1,-1,47,49,51,-1,-1,-1,53,55,-1,57,59,61,63,65,-1,-1,-1,-1,-1,-1,-1,-1,-1,-1,-1,-1,-1,-1,-1,-1,-1,-1,-1,-1,-1,-1],"loss_changes":[3.502456E3,9.074597E1,1.00367725E3,1.8416118E2,2.9576904E1,1.06381836E2,3.0029297E-2,8.815269E0,6.601685E1,0E0,5.6870625E1,2.631421E2,7.264536E2,5.4492867E-1,0E0,5.109661E1,8.237686E-1,3.3943024E0,7.624274E1,1.21619095E2,0E0,6.634204E1,3.1961426E2,1.15865395E2,3.8987793E1,0E0,0E0,0E0,6.136589E-1,0E0,0E0,2.8935394E0,3.8313751E0,2.740776E0,0E0,0E0,0E0,1.1465709E0,4.63562E1,0E0,4.9547333E1,4.1613743E1,7.62619E-1,7.0808105E0,8.2885956E1,0E0,0E0,0E0,0E0,0E0,0E0,0E0,0E0,0E0,0E0,0E0,0E0,0E0,0E0,0E0,0E0,0E0,0E0,0E0,0E0,0E0,0E0],"parents":[2147483647,0,0,1,1,2,2,3,3,4,4,5,5,6,6,7,7,8,8,10,10,11,11,12,12,13,13,15,15,16,16,17,17,18,18,19,19,21,21,22,22,23,23,24,24,28,28,31,31,32,32,33,33,37,37,38,38,40,40,41,41,42,42,43,43,44,44],"right_children":[2,4,6,8,10,12,14,16,18,-1,20,22,24,26,-1,28,30,32,34,36,-1,38,40,42,44,-1,-1,-1,46,-1,-1,48,50,52,-1,-1,-1,54,56,-1,58,60,62,64,66,-1,-1,-1,-1,-1,-1,-1,-1,-1,-1,-1,-1,-1,-1,-1,-1,-1,-1,-1,-1,-1,-1],"split_conditions":[1.435E1,2.8E1,1.839E1,1.261E1,1.399E1,1.632E1,3E-1,1.3E1,2.3E1,-6.534964E-2,1.417E1,5.3E1,5.2E1,1.019664E4,-6.498311E-2,1.183E1,6.03E0,1.417E1,1.385E1,4.9E1,-6.508982E-2,2.3E1,1.528E1,1.64E1,1.793E1,-5.389502E-2,2.0882143E-2,-6.426553E-2,4.9E1,1.9815471E-2,-6.48999E-2,8E0,1.5E1,2.4E1,2.2493157E-1,2.3355386E-1,-6.4092234E-2,1.07E5,1.446E1,-6.602347E-2,5.7E1,4.6E1,9.1352E2,1.645E1,1.825E1,2.075839E-1,5.7821184E-2,1.0424309E-2,1.9417743E-1,-4.436887E-2,1.5581389E-1,1.1256936E-2,-6.397907E-2,-6.259459E-2,1.6778963E-2,8.42002E-2,1.9820392E-1,2.0687403E-1,8.529584E-2,1.6406345E-1,-6.731197E-2,-6.519195E-2,1.5520823E-2,-4.2343646E-2,2.0926847E-1,-4.0041015E-2,2.0221245E-1],"split_indices":[25,4,25,25,25,25,27,4,4,0,25,4,4,22,0,25,25,25,25,4,0,4,25,25,25,0,0,0,21,0,0,4,4,4,0,0,0,3,25,0,4,4,2,25,25,0,0,0,0,0,0,0,0,0,0,0,0,0,0,0,0,0,0,0,0,0,0],"split_type":[0,0,0,0,0,0,0,0,0,0,0,0,0,0,0,0,0,0,0,0,0,0,0,0,0,0,0,0,0,0,0,0,0,0,0,0,0,0,0,0,0,0,0,0,0,0,0,0,0,0,0,0,0,0,0,0,0,0,0,0,0,0,0,0,0,0,0],"sum_hessian":[7.5632373E3,5.0718247E3,2.4914124E3,4.6586603E2,4.605959E3,2.1143547E3,3.7705768E2,3.346107E2,1.3125534E2,4.3995015E3,2.0645749E2,1.3197694E3,7.945853E2,5.666927E0,3.7139075E2,6.491112E1,2.6969955E2,6.637156E1,6.488378E1,7.284337E1,1.3361412E2,9.8833905E2,3.314304E2,3.1247656E2,4.8210876E2,4.579587E0,1.0873396E0,5.3675903E1,1.123521E1,1.1103079E0,2.6858926E2,6.3002827E1,3.3687365E0,4.8045692E1,1.683809E1,3.0120853E1,4.2722515E1,1.4910829E1,9.734282E2,1.3496057E2,1.9646982E2,5.819495E1,2.5428162E2,4.012997E2,8.080904E1,9.8748665E0,1.3603443E0,1.2721305E0,6.1730694E1,2.0391054E0,1.3296309E0,7.2322755E0,4.0813416E1,1.2427877E1,2.4829516E0,5.1831936E1,9.215963E2,1.2471528E2,7.175453E1,4.562775E1,1.2567199E1,2.530747E2,1.206909E0,1.1741471E0,4.0012558E2,2.8180979E1,5.262806E1],"tree_param":{"num_deleted":"0","num_feature":"34","num_nodes":"67","size_leaf_vector":"1"}},{"base_weights":[-2.670856E-1,-5.410723E-1,9.4142735E-1,-5.582292E-1,-1.8244307E-1,1.0697699E0,-5.279764E-1,-3.6962545E-1,-5.6796247E-1,1.5444285E0,-3.7884936E-1,1.2871478E0,8.7871844E-1,-2.6495063E-1,-5.5382586E-1,-5.485009E-1,1.5526451E0,-6.5309145E-2,1.1732538E-3,-4.812898E-2,1.7725139E0,-4.1451477E-2,-6.511594E-2,1.6846066E0,-5.544719E-1,-4.9574068E-1,1.5782789E0,-4.1880092E-1,6.1538342E-2,7.915971E-3,-6.481908E-2,-5.6372416E-1,1.9330221E-1,3.1929612E-2,1.6528233E0,2.2162831E-1,5.197485E-1,-6.441633E-2,6.247558E-1,9.735368E-1,1.781941E0,-6.480909E-2,-2.7819237E-1,-7.769049E-2,-5.611993E-1,8.8854957E-1,1.7270688E0,1.4968744E-2,-5.8328547E-2,-6.525005E-2,-3.7610955E-3,1.5817516E-1,-5.1439803E-2,6.110587E-2,2.0099196E-1,-8.745683E-3,1.340189E-1,-4.4273455E-2,2.5274578E-1,2.3335138E-1,5.124383E-2,-4.6192627E-2,2.0624027E-1,1.8117895E-2,-5.016059E-2,1.8183406E-2,-5.1687628E-2,-6.510466E-2,1.8509857E-2,2.0193055E-1,-6.337651E-2,2.0960474E-1,1.2224164E-1],"categories":[],"categories_nodes":[],"categories_segments":[],"categories_sizes":[],"default_left":[0,0,0,0,0,0,0,0,0,0,0,0,0,0,0,0,0,0,0,0,0,0,0,0,1,0,0,0,0,0,0,0,0,0,0,0,0,0,0,0,0,0,0,0,0,0,0,0,0,0,0,0,0,0,0,0,0,0,0,0,0,0,0,0,0,0,0,0,0,0,0,0,0],"id":18,"left_children":[1,3,5,7,9,11,13,15,17,19,21,23,25,27,29,31,33,-1,-1,-1,35,37,-1,39,41,43,45,47,-1,-1,-1,49,51,-1,53,-1,55,-1,57,59,61,-1,63,65,67,69,71,-1,-1,-1,-1,-1,-1,-1,-1,-1,-1,-1,-1,-1,-1,-1,-1,-1,-1,-1,-1,-1,-1,-1,-1,-1,-1],"loss_changes":[2.3848447E3,3.6020508E1,2.5161023E2,1.0074097E1,9.199753E1,4.9726562E1,5.848446E-1,9.636765E1,5.718994E-1,1.3154198E1,1.5346001E1,4.1865106E2,6.304939E2,1.6457599E0,6.466389E-1,2.9871979E0,2.5945206E0,0E0,0E0,0E0,3.8732986E0,3.0719044E1,0E0,3.0768677E1,1.06054306E-1,6.0221634E0,4.3030396E1,5.6453013E-1,0E0,0E0,0E0,5.0024414E-1,5.064539E0,0E0,1.4268723E0,0E0,1.6796495E0,0E0,6.2738834E1,3.1850208E1,1.1705444E1,0E0,4.345192E-1,2.8058114E0,8.0594635E-1,9.9860794E1,2.0834229E1,0E0,0E0,0E0,0E0,0E0,0E0,0E0,0E0,0E0,0E0,0E0,0E0,0E0,0E0,0E0,0E0,0E0,0E0,0E0,0E0,0E0,0E0,0E0,0E0,0E0,0E0],"parents":[2147483647,0,0,1,1,2,2,3,3,4,4,5,5,6,6,7,7,8,8,9,9,10,10,11,11,12,12,13,13,14,14,15,15,16,16,20,20,21,21,23,23,24,24,25,25,26,26,27,27,31,31,32,32,34,34,36,36,38,38,39,39,40,40,42,42,43,43,44,44,45,45,46,46],"right_children":[2,4,6,8,10,12,14,16,18,20,22,24,26,28,30,32,34,-1,-1,-1,36,38,-1,40,42,44,46,48,-1,-1,-1,50,52,-1,54,-1,56,-1,58,60,62,-1,64,66,68,70,72,-1,-1,-1,-1,-1,-1,-1,-1,-1,-1,-1,-1,-1,-1,-1,-1,-1,-1,-1,-1,-1,-1,-1,-1,-1,-1],"split_conditions":[1.632E1,1.565E1,2.053E1,2.3E1,3.2E1,5.2E1,5.76E0,1.392E1,1.1020965E2,1.6E1,1.596E1,1.799E1,1.793E1,5.64E0,3.2E3,1.372E1,1.2854E2,-6.5309145E-2,1.1732538E-3,-4.812898E-2,3.1E1,1.595E1,-6.511594E-2,1.64E1,9.93E1,5.3E1,1.839E1,1.5350877E0,6.1538342E-2,7.915971E-3,-6.481908E-2,4.22367E3,1.3E1,3.1929612E-2,1.411E1,2.2162831E-1,1.7037038E0,-6.441633E-2,4.6E1,3.7E1,2.4E1,-6.480909E-2,6.2E1,6.99E1,4E0,1.825E1,2.025E1,1.4968744E-2,-5.8328547E-2,-6.525005E-2,-3.7610955E-3,1.5817516E-1,-5.1439803E-2,6.110587E-2,2.0099196E-1,-8.745683E-3,1.340189E-1,-4.4273455E-2,2.5274578E-1,2.3335138E-1,5.124383E-2,-4.6192627E-2,2.0624027E-1,1.8117895E-2,-5.016059E-2,1.8183406E-2,-5.1687628E-2,-6.510466E-2,1.8509857E-2,2.0193055E-1,-6.337651E-2,2.0960474E-1,1.2224164E-1],"split_indices":[25,25,25,4,4,4,8,25,18,4,25,25,25,8,0,25,22,0,0,0,4,25,0,25,27,4,25,7,0,0,0,17,4,0,25,0,6,0,4,4,4,0,21,27,10,25,25,0,0,0,0,0,0,0,0,0,0,0,0,0,0,0,0,0,0,0,0,0,0,0,0,0,0],"split_type":[0,0,0,0,0,0,0,0,0,0,0,0,0,0,0,0,0,0,0,0,0,0,0,0,0,0,0,0,0,0,0,0,0,0,0,0,0,0,0,0,0,0,0,0,0,0,0,0,0,0,0,0,0,0,0,0,0,0,0,0,0,0,0,0,0,0,0,0,0,0,0,0,0],"sum_hessian":[7.199897E3,5.8697056E3,1.3301914E3,5.601186E3,2.685193E2,1.223591E3,1.0660041E2,2.767864E2,5.3244E3,2.6720451E1,2.4179883E2,5.6967664E2,6.539143E2,1.0545613E1,9.60548E1,2.5387675E2,2.290965E1,5.3227246E3,1.6749784E0,2.6943815E0,2.402607E1,8.684423E1,1.5495459E2,4.6862347E2,1.0105316E2,2.2066158E2,4.3325275E2,9.24502E0,1.3005935E0,1.4338067E0,9.4620995E1,2.4900671E2,4.8700466E0,1.9439148E0,2.0965736E1,2.0893545E1,3.1325245E0,4.8907574E1,3.7936657E1,5.7748478E1,4.10875E2,9.674733E1,4.305833E0,3.016977E1,1.904918E2,7.811506E1,3.551377E2,1.2196312E0,8.025389E0,2.47119E2,1.8877102E0,1.3081763E0,3.5618703E0,2.1637652E0,1.8801971E1,2.0886827E0,1.0438417E0,2.356921E1,1.4367448E1,1.8289484E1,3.9458996E1,2.1075552E0,4.0876746E2,1.1475486E0,3.1582844E0,1.8813843E1,1.1355928E1,1.8935263E2,1.1391877E0,4.8596184E1,2.9518875E1,3.08587E2,4.655069E1],"tree_param":{"num_deleted":"0","num_feature":"34","num_nodes":"73","size_leaf_vector":"1"}},{"base_weights":[-4.5329204E-1,-5.608222E-1,6.748734E-1,-5.644774E-1,-2.2060281E-1,1.3937646E0,3.5137358E-1,-4.8225036E-1,-5.6748706E-1,1.9493961E-1,-3.2434464E-1,1.7623125E0,-6.3326225E-2,-5.2356136E-1,1.3736576E0,-5.628578E-1,1.5799032E0,-6.5418206E-2,-4.9772865E-1,7.704944E-2,-6.391019E-2,5.1377594E-1,1.7840699E0,-2.1537866E-1,-6.5111846E-2,1.5521216E0,6.936033E-1,-6.521102E-2,-3.8937049E-3,1.9939803E-1,7.4383356E-2,1.9823533E-1,-6.4970836E-2,-4.3984765E-1,1.6000242E0,1.3054296E-1,-4.0251218E-2,5.933873E-2,2.0592216E-1,2.070377E-1,-3.991087E-1,8.976522E-1,1.8094443E0,-2.8425163E-1,1.0575776E0,-6.177398E-2,3.244083E-2,2.1107735E-1,5.219307E-2,-5.6390494E-2,1.8361625E-1,5.028146E-2,-5.614718E-2,2.0225348E-1,-6.2073488E-2,2.0899098E-1,6.3428245E-2,7.4089006E-2,-4.9880642E-2,1.677128E-1,7.21918E-2],"categories":[],"categories_nodes":[],"categories_segments":[],"categories_sizes":[],"default_left":[0,0,0,0,0,0,0,0,0,0,0,0,0,0,0,0,0,0,0,0,0,0,0,0,0,0,0,0,0,0,0,0,0,0,0,0,0,0,0,0,0,0,0,0,0,0,0,0,0,0,0,0,0,0,0,0,0,0,0,0,0],"id":19,"left_children":[1,3,5,7,9,11,13,15,17,-1,19,21,-1,23,25,27,29,-1,31,33,-1,35,37,39,-1,41,43,-1,-1,-1,-1,-1,-1,45,47,-1,-1,-1,-1,49,51,53,55,57,59,-1,-1,-1,-1,-1,-1,-1,-1,-1,-1,-1,-1,-1,-1,-1,-1],"loss_changes":[8.4191077E2,7.752075E0,1.400018E2,1.2770996E0,1.4261652E1,1.350968E2,3.7455792E2,3.877275E1,3.9404297E-1,0E0,6.203792E0,3.363556E0,0E0,2.8629189E0,2.2350159E1,4.9706268E-1,1.5288353E-1,0E0,2.257302E1,2.0482822E1,0E0,2.6020904E0,5.081482E-1,2.3491411E0,0E0,2.3989746E1,1.5225224E1,0E0,0E0,0E0,0E0,0E0,0E0,1.5281334E0,9.4802284E-1,0E0,0E0,0E0,0E0,1.0007453E1,1.7600689E0,5.659047E1,1.7218018E-1,1.9704843E0,4.389477E0,0E0,0E0,0E0,0E0,0E0,0E0,0E0,0E0,0E0,0E0,0E0,0E0,0E0,0E0,0E0,0E0],"parents":[2147483647,0,0,1,1,2,2,3,3,4,4,5,5,6,6,7,7,8,8,10,10,11,11,13,13,14,14,15,15,16,16,18,18,19,19,21,21,22,22,23,23,25,25,26,26,33,33,34,34,39,39,40,40,41,41,42,42,43,43,44,44],"right_children":[2,4,6,8,10,12,14,16,18,-1,20,22,-1,24,26,28,30,-1,32,34,-1,36,38,40,-1,42,44,-1,-1,-1,-1,-1,-1,46,48,-1,-1,-1,-1,50,52,54,56,58,60,-1,-1,-1,-1,-1,-1,-1,-1,-1,-1,-1,-1,-1,-1,-1,-1],"split_conditions":[1.799E1,1.758E1,5.2E1,2.1E1,3.2E1,1.991E1,2.025E1,1.521E1,1.714E1,1.9493961E-1,4.9E1,3E1,-6.3326225E-2,5.3E1,2.206E1,1.491E1,1.6E1,-6.5418206E-2,3.1E1,4.6E1,-6.391019E-2,3E0,4.5E1,1.839E1,-6.5111846E-2,2.053E1,5.6E1,-6.521102E-2,-3.8937049E-3,1.9939803E-1,7.4383356E-2,1.9823533E-1,-6.4970836E-2,4.5E1,1E0,1.3054296E-1,-4.0251218E-2,5.933873E-2,2.0592216E-1,1.825E1,1.3639113E0,5.7E1,2E0,2.93704E3,8.36E1,-6.177398E-2,3.244083E-2,2.1107735E-1,5.219307E-2,-5.6390494E-2,1.8361625E-1,5.028146E-2,-5.614718E-2,2.0225348E-1,-6.2073488E-2,2.0899098E-1,6.3428245E-2,7.4089006E-2,-4.9880642E-2,1.677128E-1,7.21918E-2],"split_indices":[25,25,4,4,4,25,25,25,25,0,4,4,0,4,25,25,4,0,4,4,0,26,23,25,0,25,4,0,0,0,0,0,0,4,31,0,0,0,0,25,5,4,12,15,27,0,0,0,0,0,0,0,0,0,0,0,0,0,0,0,0],"split_type":[0,0,0,0,0,0,0,0,0,0,0,0,0,0,0,0,0,0,0,0,0,0,0,0,0,0,0,0,0,0,0,0,0,0,0,0,0,0,0,0,0,0,0,0,0,0,0,0,0,0,0,0,0,0,0,0,0,0,0,0,0],"sum_hessian":[6.935939E3,6.3328335E3,6.031057E2,6.264867E3,6.796639E1,1.8614354E2,4.169622E2,2.2690506E2,6.037962E3,2.702149E0,6.5264244E1,1.5656537E2,2.9578163E1,2.249358E2,1.9202637E2,2.1906894E2,7.8361216E0,5.8949204E3,1.4304152E2,2.4125156E1,4.1139088E1,3.1032045E0,1.5346217E2,2.8203632E1,1.9673218E2,1.5109319E2,4.0933178E1,2.1717577E2,1.8931704E0,5.9839897E0,1.8521318E0,3.4915326E0,1.3954999E2,1.8542894E1,5.5822606E0,1.6215308E0,1.4816737E0,1.2910578E0,1.5217111E2,8.510397E0,1.9693235E1,4.390767E1,1.0718552E2,1.1162634E1,2.9770544E1,1.6561337E1,1.9815593E0,4.128888E0,1.4533722E0,6.0978813E0,2.4125159E0,1.5242128E0,1.8169022E1,2.7311543E1,1.6596127E1,1.0601172E2,1.1737992E0,1.0903949E0,1.007224E1,1.415059E1,1.5619953E1],"tree_param":{"num_deleted":"0","num_feature":"34","num_nodes":"61","size_leaf_vector":"1"}},{"base_weights":[-5.335751E-1,-5.657457E-1,4.9345562E-1,-5.676432E-1,-3.0171475E-1,2.0982401E-1,1.1529344E-2,-6.536945E-2,-4.8761582E-1,9.6732706E-1,-6.3919425E-2,-5.5501777E-1,1.2602326E0,1.7933643E-1,-6.468696E-2,1.2314298E0,-2.502217E-3,-6.483739E-2,-2.1864095E-1,1.6835649E0,8.334187E-1,3.1990854E-3,1.5856881E0,-4.60154E-2,1.878258E-2,1.7485218E0,7.034006E-2,-7.548623E-2,9.952428E-1,6.0756154E-2,2.0598046E-1,6.411641E-2,2.0613639E-1,-5.0838143E-2,6.404343E-2,-1.6105467E-2,1.3166915E-1],"categories":[],"categories_nodes":[],"categories_segments":[],"categories_sizes":[],"default_left":[0,0,0,0,0,0,0,0,0,0,0,1,0,0,0,0,0,0,0,0,0,0,0,0,0,0,0,0,0,0,0,0,0,0,0,0,0],"id":20,"left_children":[1,3,5,7,9,-1,11,-1,13,15,-1,17,19,-1,-1,21,-1,-1,23,25,27,-1,29,-1,-1,31,-1,33,35,-1,-1,-1,-1,-1,-1,-1,-1],"loss_changes":[2.2600366E2,3.147705E0,1.335083E2,2.6342773E-1,1.6484344E1,0E0,1.0948057E2,0E0,1.478323E1,2.2768688E0,0E0,1.998787E-1,7.323303E0,0E0,0E0,2.861987E0,0E0,0E0,3.718033E-1,5.4969025E-1,3.9036465E0,0E0,1.9691372E-1,0E0,0E0,1.3947296E-1,0E0,1.3748615E0,3.9402676E0,0E0,0E0,0E0,0E0,0E0,0E0,0E0,0E0],"parents":[2147483647,0,0,1,1,2,2,3,3,4,4,6,6,8,8,9,9,11,11,12,12,15,15,18,18,19,19,20,20,22,22,25,25,27,27,28,28],"right_children":[2,4,6,8,10,-1,12,-1,14,16,-1,18,20,-1,-1,22,-1,-1,24,26,28,-1,30,-1,-1,32,-1,34,36,-1,-1,-1,-1,-1,-1,-1,-1],"split_conditions":[1.991E1,1.942E1,5.2E1,1.879E1,4.9E1,2.0982401E-1,2.206E1,-6.536945E-2,3.1E1,2.6118314E4,-6.3919425E-2,9.93E1,5.7E1,1.7933643E-1,-6.468696E-2,6.9832725E3,-2.502217E-3,-6.483739E-2,1.5841122E0,1E0,1.5384616E0,3.1990854E-3,2.32298E3,-4.60154E-2,1.878258E-2,2.93704E3,7.034006E-2,7.8996E4,1.4E1,6.0756154E-2,2.0598046E-1,6.411641E-2,2.0613639E-1,-5.0838143E-2,6.404343E-2,-1.6105467E-2,1.3166915E-1],"split_indices":[25,25,4,25,4,0,25,0,4,15,0,27,4,0,0,15,0,0,7,24,7,0,17,0,0,15,0,3,14,0,0,0,0,0,0,0,0],"split_type":[0,0,0,0,0,0,0,0,0,0,0,0,0,0,0,0,0,0,0,0,0,0,0,0,0,0,0,0,0,0,0,0,0,0,0,0,0],"sum_hessian":[6.8308047E3,6.6237715E3,2.0703331E2,6.575366E3,4.8404938E1,5.4268032E1,1.5276527E2,6.485967E3,8.939943E1,7.61359E0,4.079135E1,1.0546875E2,4.729653E1,2.463918E0,8.693551E1,5.8157043E0,1.7978851E0,1.0205395E2,3.4148028E0,2.2266829E1,2.5029701E1,1.5677615E0,4.247943E0,2.281915E0,1.132888E0,2.0398771E1,1.868058E0,3.8634844E0,2.1166216E1,1.2749325E0,2.9730105E0,1.2261626E0,1.917261E1,2.636086E0,1.2273985E0,2.4807243E0,1.8685492E1],"tree_param":{"num_deleted":"0","num_feature":"34","num_nodes":"37","size_leaf_vector":"1"}},{"base_weights":[3.3134586E-1,1.475E0,-5.332352E-1,1.4931865E0,8.824186E-1,4.2084345E-1,-6.472829E-2,1.7368189E-1,1.2910521E0,1.2647276E0,-6.2023718E-2,1.1213927E0,-6.365504E-2,5.9182677E-2,1.4922124E0,-5.9141744E-2,1.740234E-1,-6.0967676E-2,1.739732E-1,1.1976486E0,-6.244105E-2,-4.5629434E-2,1.7378777E-1,-4.3608263E-2,1.6953553E-1],"categories":[],"categories_nodes":[],"categories_segments":[],"categories_sizes":[],"default_left":[0,0,0,0,0,0,0,0,0,0,0,0,0,0,0,0,0,0,0,0,0,0,0,0,0],"id":21,"left_children":[1,3,5,7,9,11,-1,-1,13,15,-1,17,-1,19,21,-1,-1,-1,-1,23,-1,-1,-1,-1,-1],"loss_changes":[8.198369E3,3.715039E1,1.3475476E2,1.0456543E1,5.9793175E1,9.884645E1,0E0,0E0,7.0794495E1,3.8900208E1,0E0,5.5220985E1,0E0,2.8901285E1,9.715393E0,0E0,0E0,0E0,0E0,6.9271526E0,0E0,0E0,0E0,0E0,0E0],"parents":[2147483647,0,0,1,1,2,2,3,3,4,4,5,5,8,8,9,9,11,11,13,13,14,14,19,19],"right_children":[2,4,6,8,10,12,-1,-1,14,16,-1,18,-1,20,22,-1,-1,-1,-1,24,-1,-1,-1,-1,-1],"split_conditions":[9.62E0,9.07E0,9.88E0,8.63E0,3.2E1,3.2E1,-6.472829E-2,1.7368189E-1,8.9E0,1.9E1,-6.2023718E-2,2E1,-6.365504E-2,2.2E1,1.3E1,-5.9141744E-2,1.740234E-1,-6.0967676E-2,1.739732E-1,1.2E1,-6.244105E-2,-4.5629434E-2,1.7378777E-1,-4.3608263E-2,1.6953553E-1],"split_indices":[25,25,25,25,4,4,0,0,25,4,0,4,0,4,4,0,0,0,0,4,0,0,0,0,0],"split_type":[0,0,0,0,0,0,0,0,0,0,0,0,0,0,0,0,0,0,0,0,0,0,0,0,0],"sum_hessian":[8.28959E3,3.5685122E3,4.7210776E3,3.4607803E3,1.0773201E2,1.4286626E2,4.5782114E3,3.1757354E3,2.8504477E2,8.499199E1,2.2740023E1,8.303181E1,5.9834454E1,4.0194588E1,2.4485019E2,1.030937E1,7.468262E1,1.585995E1,6.717186E1,1.3566453E1,2.6628138E1,2.3198652E0,2.4253033E2,1.9730405E0,1.1593412E1],"tree_param":{"num_deleted":"0","num_feature":"34","num_nodes":"25","size_leaf_vector":"1"}},{"base_weights":[4.5715535E-1,8.9742875E-1,-6.4732105E-2,-4.716699E-1,1.3921897E0,-5.590275E-1,2.142317E-1,8.706021E-1,1.4657463E0,-6.433949E-2,1.6176721E-2,1.3512304E0,-4.685465E-1,9.86313E-1,-6.3374184E-2,1.4997909E0,9.528555E-1,3.1960717E-1,1.7314777E-1,1.5560734E-1,-6.412917E-2,4.3393806E-1,1.1542475E0,1.738476E-1,1.3160698E0,-6.3761905E-2,1.7369935E-1,1.5860279E-1,-5.5210557E-2,1.7404917E-1,-6.373406E-2,-6.4493017E-3,1.484618E-1,-6.1895903E-2,1.7245887E-1],"categories":[],"categories_nodes":[],"categories_segments":[],"categories_sizes":[],"default_left":[0,0,0,0,0,0,0,0,0,0,0,0,0,0,0,0,0,0,0,0,0,0,0,0,0,0,0,0,0,0,0,0,0,0,0],"id":22,"left_children":[1,3,-1,5,7,9,11,13,15,-1,-1,17,19,21,-1,23,25,27,-1,-1,-1,29,31,-1,33,-1,-1,-1,-1,-1,-1,-1,-1,-1,-1],"loss_changes":[3.8961533E3,4.1045605E3,0E0,9.652783E1,1.6947461E2,7.6138306E-1,1.4230707E2,9.145145E1,6.665234E1,0E0,0E0,1.0511383E1,1.9437658E1,4.692926E1,0E0,6.448242E0,2.0738477E2,9.353844E0,0E0,0E0,0E0,1.2981844E2,6.5118286E1,0E0,8.337656E1,0E0,0E0,0E0,0E0,0E0,0E0,0E0,0E0,0E0,0E0],"parents":[2147483647,0,0,1,1,3,3,4,4,5,5,6,6,7,7,8,8,11,11,12,12,13,13,15,15,16,16,17,17,21,21,22,22,24,24],"right_children":[2,4,-1,6,8,10,12,14,16,-1,-1,18,20,22,-1,24,26,28,-1,-1,-1,30,32,-1,34,-1,-1,-1,-1,-1,-1,-1,-1,-1,-1],"split_conditions":[1.273E1,9.07E0,-6.4732105E-2,8.63E0,3.1E1,3E0,8.9E0,1.223E1,1.261E1,-6.433949E-2,1.6176721E-2,2.2E1,1.3E1,9.88E0,-6.3374184E-2,1.223E1,5.3E1,1.2E1,1.7314777E-1,1.5560734E-1,-6.412917E-2,2E1,1.3E1,1.738476E-1,1.242E1,-6.3761905E-2,1.7369935E-1,1.5860279E-1,-5.5210557E-2,1.7404917E-1,-6.373406E-2,-6.4493017E-3,1.484618E-1,-6.1895903E-2,1.7245887E-1],"split_indices":[25,25,0,25,4,9,25,25,25,0,0,4,4,25,0,25,4,4,0,0,0,4,4,0,25,0,0,0,0,0,0,0,0,0,0],"split_type":[0,0,0,0,0,0,0,0,0,0,0,0,0,0,0,0,0,0,0,0,0,0,0,0,0,0,0,0,0,0,0,0,0,0,0],"sum_hessian":[8.671357E3,6.0575264E3,2.6138313E3,1.607981E3,4.4495454E3,1.4264862E3,1.8149477E2,5.5152545E2,3.8980198E3,1.4252944E3,1.1918089E0,6.77293E1,1.13765465E2,5.1030484E2,4.1220627E1,3.6535781E3,2.4444156E2,9.248985E0,5.848032E1,4.6552815E0,1.09110176E2,1.198092E2,3.9049564E2,3.412879E3,2.4069913E2,6.605533E1,1.7838623E2,3.665765E0,5.58322E0,5.6992176E1,6.2817024E1,3.983692E1,3.5065872E2,2.157443E1,2.1912471E2],"tree_param":{"num_deleted":"0","num_feature":"34","num_nodes":"35","size_leaf_vector":"1"}},{"base_weights":[1.9288264E-1,-4.7865328E-1,7.18381E-1,4.4907084E-1,-6.461237E-2,1.194724E0,-4.468963E-1,-3.8647375E-1,1.2291869E0,1.3095813E0,6.600219E-1,-5.8573414E-2,-5.560307E-1,2.1247792E-1,-5.3582925E-1,1.498257E0,4.191552E-1,6.723888E-1,1.4460225E0,-2.613722E-1,1.5744779E0,-5.492592E-1,1.6700755E0,-4.9009278E-1,-6.469145E-2,-6.1623063E-2,1.7777275E-1,6.902029E-2,-6.3614644E-2,1.1085914E0,1.5474154E0,-3.995946E-1,1.2581497E0,1.26463E0,-6.429609E-2,-3.3032665E-1,1.4751421E0,1.6090892E-1,-5.5708134E-1,7.223448E-2,1.8143289E-1,-6.409066E-2,-4.0715602E-1,5.6935634E-2,1.9390123E-1,-5.077959E-1,6.508341E-2,1.7974485E-1,-5.327677E-2,1.1579818E-1,1.8625553E-1,-6.197838E-2,3.6721136E-2,1.7905994E-1,-4.7642626E-2,9.638528E-2,1.7377673E-1,-6.2429838E-2,2.8991012E-2,1.2935121E-1,1.7398655E-1,-6.683984E-2,2.0195363E-1,-3.1181031E-3,-6.469793E-2,-6.0229283E-2,3.5330012E-2,-5.9376933E-2,-1.566609E-2,-4.2718016E-2,6.8758346E-2],"categories":[],"categories_nodes":[],"categories_segments":[],"categories_sizes":[],"default_left":[0,0,0,0,0,0,0,0,0,0,0,0,0,0,0,0,0,0,0,0,0,0,0,0,0,0,0,0,0,0,0,0,0,0,0,0,0,0,0,0,0,0,0,0,0,0,0,0,0,0,0,0,0,0,0,0,0,0,0,0,0,0,0,0,0,0,0,0,0,0,0],"id":23,"left_children":[1,3,5,7,-1,9,11,13,15,17,19,21,23,25,27,29,31,33,35,37,39,41,43,45,-1,-1,-1,-1,-1,47,49,51,53,55,-1,57,59,61,63,-1,-1,-1,65,-1,-1,67,69,-1,-1,-1,-1,-1,-1,-1,-1,-1,-1,-1,-1,-1,-1,-1,-1,-1,-1,-1,-1,-1,-1,-1,-1],"loss_changes":[2.7933086E3,2.6922864E2,2.4652996E3,1.8773595E2,0E0,1.92729E2,5.4602753E1,1.2591013E1,3.1806213E1,2.2453467E2,4.7175443E2,2.4176799E2,1.715393E-1,2.9343414E1,2.5674667E0,4.1688538E-1,2.6945314E1,3.3577774E2,1.1095068E2,3.499205E1,3.6071777E-2,3.4332275E-2,4.0374756E-1,1.0265598E0,0E0,0E0,0E0,0E0,0E0,1.2168493E1,2.1590576E0,2.203656E0,1.0292044E1,3.1428802E1,0E0,4.507267E0,2.654541E1,1.3832893E2,4.8614883E-1,0E0,0E0,0E0,1.4909518E0,0E0,0E0,2.48209E-1,1.1558175E0,0E0,0E0,0E0,0E0,0E0,0E0,0E0,0E0,0E0,0E0,0E0,0E0,0E0,0E0,0E0,0E0,0E0,0E0,0E0,0E0,0E0,0E0,0E0,0E0],"parents":[2147483647,0,0,1,1,2,2,3,3,5,5,6,6,7,7,8,8,9,9,10,10,11,11,12,12,13,13,14,14,15,15,16,16,17,17,18,18,19,19,20,20,21,21,22,22,23,23,29,29,30,30,31,31,32,32,33,33,35,35,36,36,37,37,38,38,42,42,45,45,46,46],"right_children":[2,4,6,8,-1,10,12,14,16,18,20,22,24,26,28,30,32,34,36,38,40,42,44,46,-1,-1,-1,-1,-1,48,50,52,54,56,-1,58,60,62,64,-1,-1,-1,66,-1,-1,68,70,-1,-1,-1,-1,-1,-1,-1,-1,-1,-1,-1,-1,-1,-1,-1,-1,-1,-1,-1,-1,-1,-1,-1,-1],"split_conditions":[1.223E1,2.4E1,1.528E1,1.074E1,-6.461237E-2,1.446E1,1.599E1,1.2E1,2.1E1,1.273E1,5.2E1,1.596E1,1.629E1,9.99E0,7.14E0,1.099E1,1.171E1,5.3E1,2.3E1,1.474E1,1E0,1E0,6.1E1,2E0,-6.469145E-2,-6.1623063E-2,1.7777275E-1,6.902029E-2,-6.3614644E-2,1.4E1,1.2E1,1.654054E0,1.218E1,3.8E1,-6.429609E-2,2.1E1,3.1E1,1.472E1,1.109E1,7.223448E-2,1.8143289E-1,-6.409066E-2,5.2E1,5.6935634E-2,1.9390123E-1,2.45E1,1.877E1,1.7974485E-1,-5.327677E-2,1.1579818E-1,1.8625553E-1,-6.197838E-2,3.6721136E-2,1.7905994E-1,-4.7642626E-2,9.638528E-2,1.7377673E-1,-6.2429838E-2,2.8991012E-2,1.2935121E-1,1.7398655E-1,-6.683984E-2,2.0195363E-1,-3.1181031E-3,-6.469793E-2,-6.0229283E-2,3.5330012E-2,-5.9376933E-2,-1.566609E-2,-4.2718016E-2,6.8758346E-2],"split_indices":[25,4,25,25,0,25,25,4,4,25,4,25,25,25,25,25,25,4,4,25,10,30,21,6,0,0,0,0,0,4,4,7,25,4,0,4,4,25,22,0,0,0,4,0,0,8,8,0,0,0,0,0,0,0,0,0,0,0,0,0,0,0,0,0,0,0,0,0,0,0,0],"split_type":[0,0,0,0,0,0,0,0,0,0,0,0,0,0,0,0,0,0,0,0,0,0,0,0,0,0,0,0,0,0,0,0,0,0,0,0,0,0,0,0,0,0,0,0,0,0,0,0,0,0,0,0,0,0,0,0,0,0,0,0,0,0,0,0,0,0,0,0,0,0,0],"sum_hessian":[7.9135244E3,3.4740781E3,4.439446E3,2.8628845E2,3.1877898E3,3.1512502E3,1.2881958E3,1.3847702E2,1.4781143E2,2.5928423E3,5.58408E2,2.829472E2,1.0052486E3,2.7554441E1,1.1092258E2,1.1031742E2,3.749402E1,4.5832986E2,2.1345125E3,2.7850458E2,2.7990344E2,2.2092017E2,6.2027054E1,1.0008624E2,9.0516235E2,1.8033512E1,9.520929E0,1.1844966E0,1.0973808E2,1.4996363E1,9.532105E1,1.924101E1,1.825301E1,3.0949207E2,1.4883781E2,3.4259785E1,2.1002524E3,1.1489173E2,1.6361284E2,1.8052716E0,2.7809818E2,2.059841E2,1.493606E1,1.3010099E0,6.0726044E1,9.707608E1,3.0101595E0,1.16339855E1,3.3623767E0,1.3097148E1,8.222391E1,1.6322708E1,2.9183037E0,1.5538811E1,2.714198E0,1.15209E2,1.9428305E2,2.5143642E1,9.116143E0,2.1083592E2,1.8894166E3,7.884977E1,3.604196E1,1.8168261E0,1.6179602E2,1.3066746E1,1.8693142E0,9.446238E1,2.613701E0,1.8211236E0,1.189036E0],"tree_param":{"num_deleted":"0","num_feature":"34","num_nodes":"71","size_leaf_vector":"1"}},{"base_weights":[-2.9215379E-2,-4.9993134E-1,8.204654E-1,-8.1475444E-2,-5.440666E-1,1.0333397E0,-5.5629325E-1,-4.7174826E-1,8.0378646E-1,-6.463544E-2,-1.6661538E-1,1.165609E0,8.033857E-1,-3.2067257E-1,-6.425941E-2,-1.3249534E-1,-5.546545E-1,1.3425097E0,1.7980717E-1,5.008264E-1,-6.436518E-2,1.380668E0,5.9718657E-1,-2.5997785E-1,1.4005178E0,2.3045445E-2,-5.288372E-2,-6.351224E-2,1.4897254E0,2.0578565E-2,-6.4205356E-2,1.4079558E0,6.8534625E-1,-4.4933957E-1,1.9192696E-1,1.9956598E-1,-6.331687E-2,-4.1514713E-1,1.4057941E0,-5.264346E-1,1.2590351E0,8.4756947E-1,-5.5682725E-1,1.4948945E0,8.9550006E-1,1.9299325E-1,8.957752E-2,1.7697255E-1,8.314203E-2,-5.3113613E-2,1.7026035E-1,1.0949267E-2,-6.337048E-2,-6.1804242E-2,1.6215753E-2,7.487758E-2,1.6636881E-1,5.251754E-2,-6.1978698E-2,1.7463279E-1,7.468931E-2,-6.2508196E-2,1.3931605E-1,-6.447931E-2,1.5910193E-2,-4.249953E-2,1.7249863E-1,-3.834295E-2,1.6706644E-1],"categories":[],"categories_nodes":[],"categories_segments":[],"categories_sizes":[],"default_left":[0,0,0,0,0,0,0,0,0,0,0,0,0,0,0,0,0,0,0,0,0,0,0,0,0,0,0,0,0,0,0,0,0,0,0,0,0,0,0,0,0,0,0,0,0,0,0,0,0,0,0,0,0,0,0,0,0,0,0,0,0,0,0,0,0,0,0,0,0],"id":24,"left_children":[1,3,5,7,9,11,13,15,17,-1,19,21,23,25,-1,27,29,31,33,35,-1,37,39,41,43,-1,-1,-1,45,-1,-1,47,49,51,-1,-1,-1,53,55,57,59,61,63,65,67,-1,-1,-1,-1,-1,-1,-1,-1,-1,-1,-1,-1,-1,-1,-1,-1,-1,-1,-1,-1,-1,-1,-1,-1],"loss_changes":[2.950406E3,8.762549E1,7.7130945E2,1.5725992E2,2.9434326E1,6.835034E1,4.6943665E-2,8.808029E0,4.658558E1,0E0,5.2557037E1,1.7568921E2,5.305927E2,5.551863E-1,0E0,4.397218E1,8.232498E-1,2.2437134E0,6.2331207E1,9.756093E1,0E0,4.781836E1,2.967253E2,9.9477646E1,2.4156128E1,0E0,0E0,0E0,4.7865295E-1,0E0,0E0,4.913727E0,8.633205E0,2.6606808E0,0E0,0E0,0E0,1.1127203E0,3.1389648E1,2.103714E0,3.8772064E1,3.3130753E1,7.563095E-1,5.3535156E0,5.994287E1,0E0,0E0,0E0,0E0,0E0,0E0,0E0,0E0,0E0,0E0,0E0,0E0,0E0,0E0,0E0,0E0,0E0,0E0,0E0,0E0,0E0,0E0,0E0,0E0],"parents":[2147483647,0,0,1,1,2,2,3,3,4,4,5,5,6,6,7,7,8,8,10,10,11,11,12,12,13,13,15,15,16,16,17,17,18,18,19,19,21,21,22,22,23,23,24,24,28,28,31,31,32,32,33,33,37,37,38,38,39,39,40,40,41,41,42,42,43,43,44,44],"right_children":[2,4,6,8,10,12,14,16,18,-1,20,22,24,26,-1,28,30,32,34,36,-1,38,40,42,44,-1,-1,-1,46,-1,-1,48,50,52,-1,-1,-1,54,56,58,60,62,64,66,68,-1,-1,-1,-1,-1,-1,-1,-1,-1,-1,-1,-1,-1,-1,-1,-1,-1,-1,-1,-1,-1,-1,-1,-1],"split_conditions":[1.435E1,2.8E1,1.839E1,1.261E1,1.399E1,1.632E1,3E-1,1.3E1,2.3E1,-6.463544E-2,1.417E1,5.2E1,5.2E1,1.439961E0,-6.425941E-2,1.183E1,6.03E0,1.392E1,1.385E1,4.9E1,-6.436518E-2,2.3E1,1.528E1,1.64E1,1.793E1,2.3045445E-2,-5.288372E-2,-6.351224E-2,1.3803E4,2.0578565E-2,-6.4205356E-2,2.1E1,1.5E1,2.4E1,1.9192696E-1,1.9956598E-1,-6.331687E-2,9E0,1.446E1,1E0,5.7E1,3.7E1,9.1352E2,1.645E1,1.825E1,1.9299325E-1,8.957752E-2,1.7697255E-1,8.314203E-2,-5.3113613E-2,1.7026035E-1,1.0949267E-2,-6.337048E-2,-6.1804242E-2,1.6215753E-2,7.487758E-2,1.6636881E-1,5.251754E-2,-6.1978698E-2,1.7463279E-1,7.468931E-2,-6.2508196E-2,1.3931605E-1,-6.447931E-2,1.5910193E-2,-4.249953E-2,1.7249863E-1,-3.834295E-2,1.6706644E-1],"split_indices":[25,4,25,25,25,25,27,4,4,0,25,4,4,5,0,25,25,25,25,4,0,4,25,25,25,0,0,0,13,0,0,4,4,4,0,0,0,26,25,10,4,4,2,25,25,0,0,0,0,0,0,0,0,0,0,0,0,0,0,0,0,0,0,0,0,0,0,0,0],"split_type":[0,0,0,0,0,0,0,0,0,0,0,0,0,0,0,0,0,0,0,0,0,0,0,0,0,0,0,0,0,0,0,0,0,0,0,0,0,0,0,0,0,0,0,0,0,0,0,0,0,0,0,0,0,0,0,0,0,0,0,0,0,0,0,0,0,0,0,0,0],"sum_hessian":[7.374759E3,4.7459526E3,2.628806E3,4.5307712E2,4.2928755E3,2.2769878E3,3.5181824E2,3.147742E2,1.3830292E2,4.0947397E3,1.981357E2,1.4429408E3,8.34047E2,5.373397E0,3.4644482E2,6.232754E1,2.5244666E2,7.360406E1,6.469886E1,7.3365295E1,1.2477041E2,1.0458291E3,3.9711163E2,3.001353E2,5.339116E2,1.041353E0,4.3320436E0,5.003268E1,1.229486E1,1.0938506E0,2.513528E2,6.5898796E1,7.705255E0,4.5980114E1,1.8718742E1,3.3437973E1,3.9927322E1,1.4216598E1,1.0316125E3,1.4727954E2,2.498321E2,6.3047913E1,2.3708742E2,4.4819397E2,8.571767E1,8.632879E0,3.6619804E0,5.422809E1,1.1670709E1,3.327307E0,4.377948E0,7.2602334E0,3.871988E1,1.1677855E1,2.5387423E0,5.466574E1,9.769468E2,1.4377536E0,1.458418E2,1.7403079E2,7.580131E1,1.2982868E1,5.0065044E1,2.3588948E2,1.1979287E0,1.1783203E0,4.4701566E2,2.688606E1,5.8831608E1],"tree_param":{"num_deleted":"0","num_feature":"34","num_nodes":"69","size_leaf_vector":"1"}},{"base_weights":[-2.5726694E-1,-5.336116E-1,8.24684E-1,-5.515985E-1,-1.6914813E-1,9.2841136E-1,-5.196575E-1,-3.5891458E-1,-5.6174344E-1,1.3574933E0,-3.662869E-1,1.0983752E0,7.742095E-1,-2.4928074E-1,-5.46958E-1,-5.416106E-1,1.3018306E0,-6.459564E-2,1.8859087E-3,-4.7111467E-2,1.5387862E0,-3.1007404E-2,-6.4412974E-2,1.3973324E0,-5.475738E-1,-4.853361E-1,1.3206048E0,-4.0681407E-1,5.902229E-2,7.949769E-3,-6.409745E-2,-5.576441E-1,1.9527942E-1,1.5433534E0,7.677866E-1,1.9006626E-1,5.0738645E-1,-6.367002E-2,5.8745986E-1,8.447989E-1,1.4700587E0,-6.407874E-2,-2.6611495E-1,-6.3426666E-2,-5.545558E-1,7.8133124E-1,1.4301729E0,1.4776228E-2,-5.7328556E-2,-6.457779E-2,-3.215069E-3,1.4385268E-1,-5.0392326E-2,5.1429193E-2,1.854009E-1,-5.372105E-2,1.6919452E-1,-8.989479E-3,1.3069691E-1,-4.2749986E-2,2.1374145E-1,5.4688547E-2,2.395054E-1,7.836219E-2,1.7204092E-1,-4.938054E-2,1.9899732E-2,-3.6409408E-2,3.1500626E-2,-6.437998E-2,1.8842269E-2,1.669256E-1,-6.257511E-2,1.728174E-1,1.0468467E-1],"categories":[],"categories_nodes":[],"categories_segments":[],"categories_sizes":[],"default_left":[0,0,0,0,0,0,0,0,0,0,0,0,0,0,0,0,0,0,0,0,0,0,0,0,1,0,0,0,0,0,0,0,0,0,0,0,0,0,0,0,0,0,0,0,0,0,0,0,0,0,0,0,0,0,0,0,0,0,0,0,0,0,0,0,0,0,0,0,0,0,0,0,0,0,0],"id":25,"left_children":[1,3,5,7,9,11,13,15,17,19,21,23,25,27,29,31,33,-1,-1,-1,35,37,-1,39,41,43,45,47,-1,-1,-1,49,51,53,55,-1,57,-1,59,61,63,-1,65,67,69,71,73,-1,-1,-1,-1,-1,-1,-1,-1,-1,-1,-1,-1,-1,-1,-1,-1,-1,-1,-1,-1,-1,-1,-1,-1,-1,-1,-1,-1],"loss_changes":[2.0573137E3,3.583374E1,1.957052E2,1.0006592E1,7.850241E1,3.32229E1,6.086254E-1,8.079622E1,5.7092285E-1,1.0196106E1,1.4969372E1,3.0389984E2,4.7208652E2,1.5418279E0,6.344147E-1,2.926918E0,2.2272606E0,0E0,0E0,0E0,2.388153E0,2.7975199E1,0E0,1.9719116E1,1.16680145E-1,6.039074E0,2.7128723E1,5.43952E-1,0E0,0E0,0E0,4.96727E-1,4.4434075E0,5.9072876E-1,9.582867E0,0E0,1.6273489E0,0E0,4.9081455E1,2.782008E1,8.611816E0,0E0,4.438061E-1,2.6891725E0,7.983017E-1,7.453903E1,1.3698425E1,0E0,0E0,0E0,0E0,0E0,0E0,0E0,0E0,0E0,0E0,0E0,0E0,0E0,0E0,0E0,0E0,0E0,0E0,0E0,0E0,0E0,0E0,0E0,0E0,0E0,0E0,0E0,0E0],"parents":[2147483647,0,0,1,1,2,2,3,3,4,4,5,5,6,6,7,7,8,8,9,9,10,10,11,11,12,12,13,13,14,14,15,15,16,16,20,20,21,21,23,23,24,24,25,25,26,26,27,27,31,31,32,32,33,33,34,34,36,36,38,38,39,39,40,40,42,42,43,43,44,44,45,45,46,46],"right_children":[2,4,6,8,10,12,14,16,18,20,22,24,26,28,30,32,34,-1,-1,-1,36,38,-1,40,42,44,46,48,-1,-1,-1,50,52,54,56,-1,58,-1,60,62,64,-1,66,68,70,72,74,-1,-1,-1,-1,-1,-1,-1,-1,-1,-1,-1,-1,-1,-1,-1,-1,-1,-1,-1,-1,-1,-1,-1,-1,-1,-1,-1,-1],"split_conditions":[1.632E1,1.565E1,2.053E1,2.3E1,3.2E1,5.2E1,5.76E0,1.392E1,1.1020965E2,1.6E1,1.596E1,1.799E1,1.793E1,5.64E0,3.2E3,1.372E1,2.1E1,-6.459564E-2,1.8859087E-3,-4.7111467E-2,3.1E1,1.595E1,-6.4412974E-2,1.64E1,9.93E1,5.3E1,1.839E1,1.5350877E0,5.902229E-2,7.949769E-3,-6.409745E-2,4.22367E3,1.3E1,1E1,1.465E1,1.9006626E-1,1.4125E4,-6.367002E-2,4.6E1,4.6E1,3.1E1,-6.407874E-2,4.8E1,1.695E1,4E0,1.825E1,2.025E1,1.4776228E-2,-5.7328556E-2,-6.457779E-2,-3.215069E-3,1.4385268E-1,-5.0392326E-2,5.1429193E-2,1.854009E-1,-5.372105E-2,1.6919452E-1,-8.989479E-3,1.3069691E-1,-4.2749986E-2,2.1374145E-1,5.4688547E-2,2.395054E-1,7.836219E-2,1.7204092E-1,-4.938054E-2,1.9899732E-2,-3.6409408E-2,3.1500626E-2,-6.437998E-2,1.8842269E-2,1.669256E-1,-6.257511E-2,1.728174E-1,1.0468467E-1],"split_indices":[25,25,25,4,4,4,8,25,18,4,25,25,25,8,0,25,4,0,0,0,4,25,0,25,27,4,25,7,0,0,0,17,4,4,25,0,0,0,4,4,4,0,4,25,10,25,25,0,0,0,0,0,0,0,0,0,0,0,0,0,0,0,0,0,0,0,0,0,0,0,0,0,0,0,0],"split_type":[0,0,0,0,0,0,0,0,0,0,0,0,0,0,0,0,0,0,0,0,0,0,0,0,0,0,0,0,0,0,0,0,0,0,0,0,0,0,0,0,0,0,0,0,0,0,0,0,0,0,0,0,0,0,0,0,0,0,0,0,0,0,0,0,0,0,0,0,0,0,0,0,0,0,0],"sum_hessian":[6.878374E3,5.4793755E3,1.3989985E3,5.2211875E3,2.5818768E2,1.2990735E3,9.992512E1,2.6296866E2,4.9582188E3,2.8854286E1,2.293334E2,6.150416E2,6.840318E2,1.0093447E1,8.983167E1,2.3751399E2,2.5454672E1,4.9565674E3,1.6514486E0,2.5672119E0,2.6287073E1,8.450152E1,1.448319E2,5.206296E2,9.4412056E1,2.0699062E2,4.770412E2,8.75239E0,1.3410566E0,1.4326844E0,8.839899E1,2.326942E2,4.819792E0,1.6226334E1,9.228337E0,2.3114267E1,3.172807E0,4.584584E1,3.8655678E1,6.202376E1,4.5860583E2,9.0266495E1,4.145564E0,2.9443312E1,1.775473E2,8.192973E1,3.9511148E2,1.2239883E0,7.528402E0,2.3082945E2,1.8647466E0,1.4417907E0,3.3780012E0,1.4113076E0,1.4815026E1,3.4727247E0,5.755613E0,2.0975966E0,1.0752105E0,2.2438929E1,1.6216747E1,4.8853428E1,1.3170333E1,1.5828825E1,4.42777E2,3.0372128E0,1.1083513E0,1.6853703E1,1.2589609E1,1.7641547E2,1.1318295E0,5.4338604E1,2.7591131E1,3.44639E2,5.0472446E1],"tree_param":{"num_deleted":"0","num_feature":"34","num_nodes":"75","size_leaf_vector":"1"}},{"base_weights":[-4.4376242E-1,-5.542614E-1,6.0460436E-1,-5.581289E-1,-2.0322555E-1,1.1818821E0,3.2398272E-1,-4.7328228E-1,-5.6126773E-1,1.7395473E-1,-3.0853942E-1,1.4559389E0,-6.2505685E-2,-5.149543E-1,1.1666424E0,-5.56838E-1,1.3475167E0,-6.4713016E-2,-4.8822594E-1,8.999024E-2,-6.312454E-2,6.1480063E-1,1.4773564E0,-1.9872503E-1,-6.439103E-2,1.3045672E0,6.171231E-1,-6.454906E-2,-3.3943043E-3,1.4481063E0,5.104595E-2,1.7328085E-1,-6.424179E-2,-6.0898256E-2,1.2083784E0,1.3986121E-1,-4.5461528E-2,1.7409118E-1,1.0782214E0,2.1064556E-1,-3.8473222E-1,7.934985E-1,1.7170672E-1,-2.7082145E-1,9.11665E-1,1.7925745E-1,5.652343E-2,1.7960413E-1,-4.0288623E-2,9.942481E-3,1.5615003E-1,-5.5338763E-2,1.6398038E-1,4.9024727E-2,-5.4944683E-2,1.7103495E-1,-6.1526723E-2,6.8286866E-2,-4.8579153E-2,1.3529325E-1,5.4592285E-2],"categories":[],"categories_nodes":[],"categories_segments":[],"categories_sizes":[],"default_left":[0,0,0,0,0,0,0,0,0,0,0,0,0,0,0,0,0,0,0,0,0,0,0,0,0,0,0,0,0,0,0,0,0,0,0,0,0,0,0,0,0,0,0,0,0,0,0,0,0,0,0,0,0,0,0,0,0,0,0,0,0],"id":26,"left_children":[1,3,5,7,9,11,13,15,17,-1,19,21,-1,23,25,27,29,-1,31,33,-1,35,37,39,-1,41,43,-1,-1,45,-1,-1,-1,-1,47,-1,-1,-1,49,51,53,55,-1,57,59,-1,-1,-1,-1,-1,-1,-1,-1,-1,-1,-1,-1,-1,-1,-1,-1],"loss_changes":[7.561373E2,7.9002686E0,1.0047302E2,1.2890625E0,1.2379337E1,9.6923065E1,2.9773416E2,3.3405354E1,4.2053223E-1,0E0,6.0824947E0,2.2566833E0,0E0,2.9094467E0,1.5111023E1,4.933586E-1,2.3937035E-1,0E0,1.9860836E1,1.7653215E1,0E0,4.175371E0,8.9489746E-1,2.2115371E0,0E0,1.49565735E1,1.1762386E1,0E0,0E0,1.1628723E-1,0E0,0E0,0E0,0E0,5.5462494E0,0E0,0E0,0E0,4.8809185E0,8.585808E0,1.6858842E0,4.4381996E1,0E0,1.7919884E0,3.2984905E0,0E0,0E0,0E0,0E0,0E0,0E0,0E0,0E0,0E0,0E0,0E0,0E0,0E0,0E0,0E0,0E0],"parents":[2147483647,0,0,1,1,2,2,3,3,4,4,5,5,6,6,7,7,8,8,10,10,11,11,13,13,14,14,15,15,16,16,18,18,19,19,21,21,22,22,23,23,25,25,26,26,29,29,34,34,38,38,39,39,40,40,41,41,43,43,44,44],"right_children":[2,4,6,8,10,12,14,16,18,-1,20,22,-1,24,26,28,30,-1,32,34,-1,36,38,40,-1,42,44,-1,-1,46,-1,-1,-1,-1,48,-1,-1,-1,50,52,54,56,-1,58,60,-1,-1,-1,-1,-1,-1,-1,-1,-1,-1,-1,-1,-1,-1,-1,-1],"split_conditions":[1.799E1,1.758E1,5.2E1,2.1E1,3.2E1,1.991E1,2.025E1,1.521E1,1.714E1,1.7395473E-1,4.9E1,3.1E1,-6.2505685E-2,5.3E1,2.206E1,1.491E1,1.6541524E0,-6.4713016E-2,3.1E1,4.5E1,-6.312454E-2,1.862E1,1.942E1,1.839E1,-6.439103E-2,2.053E1,5.6E1,-6.454906E-2,-3.3943043E-3,1.68682E3,5.104595E-2,1.7328085E-1,-6.424179E-2,-6.0898256E-2,1.793E1,1.3986121E-1,-4.5461528E-2,1.7409118E-1,1.969E1,1.825E1,1.3639113E0,5.7E1,1.7170672E-1,2.93704E3,9E1,1.7925745E-1,5.652343E-2,1.7960413E-1,-4.0288623E-2,9.942481E-3,1.5615003E-1,-5.5338763E-2,1.6398038E-1,4.9024727E-2,-5.4944683E-2,1.7103495E-1,-6.1526723E-2,6.8286866E-2,-4.8579153E-2,1.3529325E-1,5.4592285E-2],"split_indices":[25,25,4,4,4,25,25,25,25,0,4,4,0,4,25,25,7,0,4,4,0,25,25,25,0,25,4,0,0,22,0,0,0,0,25,0,0,0,25,25,5,4,0,15,27,0,0,0,0,0,0,0,0,0,0,0,0,0,0,0,0],"split_type":[0,0,0,0,0,0,0,0,0,0,0,0,0,0,0,0,0,0,0,0,0,0,0,0,0,0,0,0,0,0,0,0,0,0,0,0,0,0,0,0,0,0,0,0,0,0,0,0,0,0,0,0,0,0,0,0,0,0,0,0,0],"sum_hessian":[6.5233413E3,5.9017607E3,6.2158057E2,5.836864E3,6.489717E1,2.0227043E2,4.1931015E2,2.1364047E2,5.623223E3,2.9786499E0,6.1918518E1,1.746843E2,2.7586126E1,2.1031409E2,2.0899606E2,2.0493048E2,8.709997E0,5.4893057E3,1.3391745E2,2.354498E1,3.837354E1,5.07506E0,1.6960924E2,2.6979122E1,1.8333496E2,1.6596599E2,4.3030075E1,2.0305722E2,1.8732618E0,7.294923E0,1.4150747E0,3.8825512E0,1.3003491E2,1.5488303E1,8.056676E0,3.052284E0,2.022776E0,1.5262047E2,1.698877E1,8.387402E0,1.859172E1,4.6238743E1,1.1972724E2,1.0738288E1,3.2291786E1,5.9695907E0,1.3253322E0,6.5636144E0,1.4930613E0,4.03063E0,1.295814E1,5.730027E0,2.6573746E0,1.5483716E0,1.704335E1,3.0289726E1,1.5949017E1,1.1681871E0,9.570101E0,1.9034634E1,1.32571535E1],"tree_param":{"num_deleted":"0","num_feature":"34","num_nodes":"61","size_leaf_vector":"1"}},{"base_weights":[-5.260781E-1,-5.5943584E-1,4.4813448E-1,-5.6144375E-1,-2.860373E-1,1.733723E-1,1.2891248E-2,-6.466284E-2,-4.7781727E-1,8.911441E-1,-6.313424E-2,-5.4822993E-1,1.0743426E0,1.5647736E-1,-6.393967E-2,-2.8629655E-3,1.1147717E0,-6.4119995E-2,-2.059254E-1,1.407123E0,7.268748E-1,1.3410494E0,8.705452E-3,2.0628838E-2,-4.5230135E-2,1.6760826E-1,1.5277577E-2,-7.672557E-2,8.598066E-1,1.9208372E-2,1.8074267E-1,7.830388E-2,-5.166044E-2,1.4138162E-1,4.666032E-2],"categories":[],"categories_nodes":[],"categories_segments":[],"categories_sizes":[],"default_left":[0,0,0,0,0,0,0,0,0,0,0,1,0,0,0,0,0,0,0,0,0,0,0,0,0,0,0,0,0,0,0,0,0,0,0],"id":27,"left_children":[1,3,5,7,9,-1,11,-1,13,15,-1,17,19,-1,-1,-1,21,-1,23,25,27,29,-1,-1,-1,-1,-1,31,33,-1,-1,-1,-1,-1,-1],"loss_changes":[2.0766406E2,3.227417E0,9.7731735E1,2.8442383E-1,1.5061805E1,0E0,9.06456E1,0E0,1.29788E1,1.8664641E0,0E0,2.1138191E-1,5.062481E0,0E0,0E0,0E0,1.5997763E0,0E0,3.8095617E-1,1.4822884E0,3.03716E0,1.3344755E0,0E0,0E0,0E0,0E0,0E0,1.6806089E0,3.52388E0,0E0,0E0,0E0,0E0,0E0,0E0],"parents":[2147483647,0,0,1,1,2,2,3,3,4,4,6,6,8,8,9,9,11,11,12,12,16,16,18,18,19,19,20,20,21,21,27,27,28,28],"right_children":[2,4,6,8,10,-1,12,-1,14,16,-1,18,20,-1,-1,-1,22,-1,24,26,28,30,-1,-1,-1,-1,-1,32,34,-1,-1,-1,-1,-1,-1],"split_conditions":[1.991E1,1.942E1,5.2E1,1.879E1,4.9E1,1.733723E-1,2.206E1,-6.466284E-2,3.1E1,1.5343189E0,-6.313424E-2,9.93E1,5.7E1,1.5647736E-1,-6.393967E-2,-2.8629655E-3,2.9E1,-6.4119995E-2,5E0,1.43448E3,1.5384616E0,7.125E3,8.705452E-3,2.0628838E-2,-4.5230135E-2,1.6760826E-1,1.5277577E-2,2E0,1.615157E0,1.9208372E-2,1.8074267E-1,7.830388E-2,-5.166044E-2,1.4138162E-1,4.666032E-2],"split_indices":[25,25,4,25,4,0,25,0,4,5,0,27,4,0,0,0,14,0,11,19,7,0,0,0,0,0,0,26,7,0,0,0,0,0,0],"split_type":[0,0,0,0,0,0,0,0,0,0,0,0,0,0,0,0,0,0,0,0,0,0,0,0,0,0,0,0,0,0,0,0,0,0,0],"sum_hessian":[6.381443E3,6.1705835E3,2.1085924E2,6.124549E3,4.6034798E1,6.065678E1,1.5020245E2,6.040801E3,8.37481E1,7.9756484E0,3.805915E1,9.857545E1,5.1627003E1,2.7558599E0,8.099224E1,1.7393491E0,6.2362995E0,9.528164E1,3.293808E0,2.48131E1,2.6813902E1,4.8823752E0,1.3539243E0,1.0923381E0,2.20147E0,2.3720203E1,1.0928985E0,3.8659909E0,2.2947912E1,1.0871063E0,3.7952688E0,1.0014961E0,2.8644948E0,1.1698676E1,1.1249236E1],"tree_param":{"num_deleted":"0","num_feature":"34","num_nodes":"35","size_leaf_vector":"1"}},{"base_weights":[3.0673233E-1,1.2365096E0,-6.40845E-2,1.2815443E0,5.513611E-1,1.2959377E0,1.1197828E0,1.0546303E0,-6.325295E-2,1.4900316E-1,5.8141544E-2,5.661387E-2,1.2730236E0,-6.1517823E-2,1.5049493E-1,1.0461252E0,-6.165522E-2,-5.0524868E-2,1.4914598E-1,-4.2661138E-2,1.4620416E-1],"categories":[],"categories_nodes":[],"categories_segments":[],"categories_sizes":[],"default_left":[0,0,0,0,0,0,0,0,0,0,0,0,0,0,0,0,0,0,0,0,0],"id":28,"left_children":[1,3,-1,5,7,9,11,13,-1,-1,-1,15,17,-1,-1,19,-1,-1,-1,-1,-1],"loss_changes":[6.597564E3,1.21333984E2,0E0,7.1879883E0,1.3679773E2,1.2646484E-1,5.052072E1,6.9096115E1,0E0,0E0,0E0,2.4129358E1,1.1931885E1,0E0,0E0,5.3960514E0,0E0,0E0,0E0,0E0,0E0],"parents":[2147483647,0,0,1,1,3,3,4,4,5,5,6,6,7,7,11,11,12,12,15,15],"right_children":[2,4,-1,6,8,10,12,14,-1,-1,-1,16,18,-1,-1,20,-1,-1,-1,-1,-1],"split_conditions":[9.88E0,9.25E0,-6.40845E-2,8.63E0,3.2E1,6E0,8.9E0,2E1,-6.325295E-2,